{"learner":{"attributes":{"scikit_learn":"{\"_estimator_type\": \"regressor\"}"},"feature_names":["year","proximity_km","barangay_Bagtas","barangay_Biga","barangay_Biwas","barangay_Bucal","barangay_Bunga","barangay_Calibuyo","barangay_Capipisa","barangay_Daang Amaya","barangay_Halayhay","barangay_Julugan","barangay_Lambingan","barangay_Mulawin","barangay_Paradahan","barangay_Poblacion","barangay_Punta","barangay_Sahud Ulan","barangay_Sanja Mayor","barangay_Santol","barangay_Tanauan","barangay_Tres Cruses"],"feature_types":["int","float","i","i","i","i","i","i","i","i","i","i","i","i","i","i","i","i","i","i","i","i"],"gradient_booster":{"model":{"cats":{"enc":[],"feature_segments":[],"sorted_idx":[]},"gbtree_model_param":{"num_parallel_tree":"1","num_trees":"150"},"iteration_indptr":[0,1,2,3,4,5,6,7,8,9,10,11,12,13,14,15,16,17,18,19,20,21,22,23,24,25,26,27,28,29,30,31,32,33,34,35,36,37,38,39,40,41,42,43,44,45,46,47,48,49,50,51,52,53,54,55,56,57,58,59,60,61,62,63,64,65,66,67,68,69,70,71,72,73,74,75,76,77,78,79,80,81,82,83,84,85,86,87,88,89,90,91,92,93,94,95,96,97,98,99,100,101,102,103,104,105,106,107,108,109,110,111,112,113,114,115,116,117,118,119,120,121,122,123,124,125,126,127,128,129,130,131,132,133,134,135,136,137,138,139,140,141,142,143,144,145,146,147,148,149,150],"tree_info":[0,0,0,0,0,0,0,0,0,0,0,0,0,0,0,0,0,0,0,0,0,0,0,0,0,0,0,0,0,0,0,0,0,0,0,0,0,0,0,0,0,0,0,0,0,0,0,0,0,0,0,0,0,0,0,0,0,0,0,0,0,0,0,0,0,0,0,0,0,0,0,0,0,0,0,0,0,0,0,0,0,0,0,0,0,0,0,0,0,0,0,0,0,0,0,0,0,0,0,0,0,0,0,0,0,0,0,0,0,0,0,0,0,0,0,0,0,0,0,0,0,0,0,0,0,0,0,0,0,0,0,0,0,0,0,0,0,0,0,0,0,0,0,0,0,0,0,0,0,0],"trees":[{"base_weights":[3.1713636E-8,-1.3657638E-1,1.3039796E-1,1.8752117E-1,-1.4192768E0,4.3113455E-2,1.1242177E-1,-7.703161E-2,-4.9959183E-2,-4.44128E-3,9.032653E-2],"categories":[],"categories_nodes":[],"categories_segments":[],"categories_sizes":[],"default_left":[0,0,0,0,0,0,0,0,0,0,0],"id":0,"left_children":[1,3,-1,5,7,9,-1,-1,-1,-1,-1],"loss_changes":[1.503104E2,1.669699E2,0E0,9.5436485E1,2.5900574E0,7.019221E1,0E0,0E0,0E0,0E0,0E0],"parents":[2147483647,0,0,1,1,3,3,4,4,5,5],"right_children":[2,4,-1,6,8,10,-1,-1,-1,-1,-1],"split_conditions":[1E0,8.9E0,1.3039796E-1,1E0,1E0,1E0,1.1242177E-1,-7.703161E-2,-4.9959183E-2,-4.44128E-3,9.032653E-2],"split_indices":[8,1,0,11,12,10,0,0,0,0,0],"split_type":[0,0,0,0,0,0,0,0,0,0,0],"sum_hessian":[4.2E2,4E2,2E1,3.2E2,8E1,3E2,2E1,6E1,2E1,2.8E2,2E1],"tree_param":{"num_deleted":"0","num_feature":"22","num_nodes":"11","size_leaf_vector":"1"}},{"base_weights":[4.7913584E-4,-1.2956974E-1,1.24188535E-1,1.7876287E-1,-1.3498808E0,4.12431E-2,1.0706835E-1,-7.324318E-2,-4.7580175E-2,-4.220007E-3,8.602527E-2],"categories":[],"categories_nodes":[],"categories_segments":[],"categories_sizes":[],"default_left":[0,0,0,0,0,0,0,0,0,0,0],"id":1,"left_children":[1,3,-1,5,7,9,-1,-1,-1,-1,-1],"loss_changes":[1.3628348E2,1.5112225E2,0E0,8.654858E1,2.3154297E0,6.3652584E1,0E0,0E0,0E0,0E0,0E0],"parents":[2147483647,0,0,1,1,3,3,4,4,5,5],"right_children":[2,4,-1,6,8,10,-1,-1,-1,-1,-1],"split_conditions":[1E0,8.9E0,1.24188535E-1,1E0,1E0,1E0,1.0706835E-1,-7.324318E-2,-4.7580175E-2,-4.220007E-3,8.602527E-2],"split_indices":[8,1,0,11,12,10,0,0,0,0,0],"split_type":[0,0,0,0,0,0,0,0,0,0,0],"sum_hessian":[4.2E2,4E2,2E1,3.2E2,8E1,3E2,2E1,6E1,2E1,2.8E2,2E1],"tree_param":{"num_deleted":"0","num_feature":"22","num_nodes":"11","size_leaf_vector":"1"}},{"base_weights":[9.1180013E-4,-1.2292156E-1,1.182748E-1,1.704131E-1,-1.2838784E0,3.9452717E-2,1.0196985E-1,-6.964105E-2,-4.5314457E-2,-4.0097577E-3,8.192883E-2],"categories":[],"categories_nodes":[],"categories_segments":[],"categories_sizes":[],"default_left":[0,0,0,0,0,0,0,0,0,0,0],"id":2,"left_children":[1,3,-1,5,7,9,-1,-1,-1,-1,-1],"loss_changes":[1.2356564E2,1.367789E2,0E0,7.848843E1,2.0696716E0,5.772226E1,0E0,0E0,0E0,0E0,0E0],"parents":[2147483647,0,0,1,1,3,3,4,4,5,5],"right_children":[2,4,-1,6,8,10,-1,-1,-1,-1,-1],"split_conditions":[1E0,8.9E0,1.182748E-1,1E0,1E0,1E0,1.0196985E-1,-6.964105E-2,-4.5314457E-2,-4.0097577E-3,8.192883E-2],"split_indices":[8,1,0,11,12,10,0,0,0,0,0],"split_type":[0,0,0,0,0,0,0,0,0,0,0],"sum_hessian":[4.2E2,4E2,2E1,3.2E2,8E1,3E2,2E1,6E1,2E1,2.8E2,2E1],"tree_param":{"num_deleted":"0","num_feature":"22","num_nodes":"11","size_leaf_vector":"1"}},{"base_weights":[1.3013555E-3,-1.166136E-1,1.1264267E-1,1.6245282E-1,-1.2211038E0,3.7738923E-2,9.7114146E-2,-6.621609E-2,-4.3156624E-2,7.962039E-2,-3.9290297E-3],"categories":[],"categories_nodes":[],"categories_segments":[],"categories_sizes":[],"default_left":[0,0,0,0,0,0,0,0,0,0,0],"id":3,"left_children":[1,3,-1,5,7,9,-1,-1,-1,-1,-1],"loss_changes":[1.12034706E2,1.2379704E2,0E0,7.1178925E1,1.8498077E0,5.4557476E1,0E0,0E0,0E0,0E0,0E0],"parents":[2147483647,0,0,1,1,3,3,4,4,5,5],"right_children":[2,4,-1,6,8,10,-1,-1,-1,-1,-1],"split_conditions":[1E0,8.9E0,1.1264267E-1,1E0,1E0,8E-1,9.7114146E-2,-6.621609E-2,-4.3156624E-2,7.962039E-2,-3.9290297E-3],"split_indices":[8,1,0,11,12,1,0,0,0,0,0],"split_type":[0,0,0,0,0,0,0,0,0,0,0],"sum_hessian":[4.2E2,4E2,2E1,3.2E2,8E1,3E2,2E1,6E1,2E1,2E1,2.8E2],"tree_param":{"num_deleted":"0","num_feature":"22","num_nodes":"11","size_leaf_vector":"1"}},{"base_weights":[1.6545214E-3,-1.1062472E-1,1.0727873E-1,1.5486851E-1,-1.1613989E0,3.6103442E-2,9.248967E-2,-6.295956E-2,-4.110155E-2,-3.911562E-3,7.8214556E-2],"categories":[],"categories_nodes":[],"categories_segments":[],"categories_sizes":[],"default_left":[0,0,0,0,0,0,0,0,0,0,0],"id":4,"left_children":[1,3,-1,5,7,9,-1,-1,-1,-1,-1],"loss_changes":[1.0157952E2,1.120482E2,0E0,6.4549835E1,1.6530991E0,5.2714558E1,0E0,0E0,0E0,0E0,0E0],"parents":[2147483647,0,0,1,1,3,3,4,4,5,5],"right_children":[2,4,-1,6,8,10,-1,-1,-1,-1,-1],"split_conditions":[1E0,8.9E0,1.0727873E-1,1E0,1E0,1E0,9.248967E-2,-6.295956E-2,-4.110155E-2,-3.911562E-3,7.8214556E-2],"split_indices":[8,1,0,11,12,10,0,0,0,0,0],"split_type":[0,0,0,0,0,0,0,0,0,0,0],"sum_hessian":[4.2E2,4E2,2E1,3.2E2,8E1,3E2,2E1,6E1,2E1,2.8E2,2E1],"tree_param":{"num_deleted":"0","num_feature":"22","num_nodes":"11","size_leaf_vector":"1"}},{"base_weights":[1.9756441E-3,-1.0493702E-1,1.0217022E-1,1.4764473E-1,-1.1046137E0,3.454517E-2,8.808539E-2,-5.9863187E-2,-3.914433E-2,7.601521E-2,-3.830657E-3],"categories":[],"categories_nodes":[],"categories_segments":[],"categories_sizes":[],"default_left":[0,0,0,0,0,0,0,0,0,0,0],"id":5,"left_children":[1,3,-1,5,7,9,-1,-1,-1,-1,-1],"loss_changes":[9.209961E1,1.0141561E2,0E0,5.8537643E1,1.4771347E0,4.982797E1,0E0,0E0,0E0,0E0,0E0],"parents":[2147483647,0,0,1,1,3,3,4,4,5,5],"right_children":[2,4,-1,6,8,10,-1,-1,-1,-1,-1],"split_conditions":[1E0,8.9E0,1.0217022E-1,1E0,1E0,8E-1,8.808539E-2,-5.9863187E-2,-3.914433E-2,7.601521E-2,-3.830657E-3],"split_indices":[8,1,0,11,12,1,0,0,0,0,0],"split_type":[0,0,0,0,0,0,0,0,0,0,0],"sum_hessian":[4.2E2,4E2,2E1,3.2E2,8E1,3E2,2E1,6E1,2E1,2E1,2.8E2],"tree_param":{"num_deleted":"0","num_feature":"22","num_nodes":"11","size_leaf_vector":"1"}},{"base_weights":[2.2650699E-3,-9.953739E-2,9.730496E-2,1.407618E-1,-1.0506053E0,3.3057734E-2,8.389085E-2,-5.6919094E-2,-3.7280317E-2,-3.8099743E-3,7.467246E-2],"categories":[],"categories_nodes":[],"categories_segments":[],"categories_sizes":[],"default_left":[0,0,0,0,0,0,0,0,0,0,0],"id":6,"left_children":[1,3,-1,5,7,9,-1,-1,-1,-1,-1],"loss_changes":[8.350418E1,9.1792755E1,0E0,5.3085148E1,1.3197327E0,4.8140854E1,0E0,0E0,0E0,0E0,0E0],"parents":[2147483647,0,0,1,1,3,3,4,4,5,5],"right_children":[2,4,-1,6,8,10,-1,-1,-1,-1,-1],"split_conditions":[1E0,8.9E0,9.730496E-2,1E0,1E0,1E0,8.389085E-2,-5.6919094E-2,-3.7280317E-2,-3.8099743E-3,7.467246E-2],"split_indices":[8,1,0,11,12,10,0,0,0,0,0],"split_type":[0,0,0,0,0,0,0,0,0,0,0],"sum_hessian":[4.2E2,4E2,2E1,3.2E2,8E1,3E2,2E1,6E1,2E1,2.8E2,2E1],"tree_param":{"num_deleted":"0","num_feature":"22","num_nodes":"11","size_leaf_vector":"1"}},{"base_weights":[2.5267415E-3,-9.440954E-2,9.2671394E-2,1.3420576E-1,-9.9923795E-1,2.3916897E-1,-6.883289E-2,-5.4119796E-2,-3.5505064E-2,1.7820226E-2,-6.704717E-2],"categories":[],"categories_nodes":[],"categories_segments":[],"categories_sizes":[],"default_left":[0,0,0,0,0,0,0,0,0,0,0],"id":7,"left_children":[1,3,-1,5,7,9,-1,-1,-1,-1,-1],"loss_changes":[7.571059E1,8.308401E1,0E0,5.1235065E1,1.1789551E0,5.623677E1,0E0,0E0,0E0,0E0,0E0],"parents":[2147483647,0,0,1,1,3,3,4,4,5,5],"right_children":[2,4,-1,6,8,10,-1,-1,-1,-1,-1],"split_conditions":[1E0,8.9E0,9.2671394E-2,1E0,1E0,1E0,-6.883289E-2,-5.4119796E-2,-3.5505064E-2,1.7820226E-2,-6.704717E-2],"split_indices":[8,1,0,19,12,6,0,0,0,0,0],"split_type":[0,0,0,0,0,0,0,0,0,0,0],"sum_hessian":[4.2E2,4E2,2E1,3.2E2,8E1,3E2,2E1,6E1,2E1,2.8E2,2E1],"tree_param":{"num_deleted":"0","num_feature":"22","num_nodes":"11","size_leaf_vector":"1"}},{"base_weights":[2.1272234E-3,-9.020697E-2,8.825847E-2,1.619741E-1,-8.4086335E-1,-4.6082757E-2,9.813139E-1,-3.783913E-1,-9.5038253E-1,-1.0023954E-2,7.9047464E-2,3.7009228E-2,7.026806E-2,-3.9533786E-2,-1.0006758E-2,-5.145816E-2,-3.3814345E-2],"categories":[],"categories_nodes":[],"categories_segments":[],"categories_sizes":[],"default_left":[0,0,0,0,0,0,0,0,0,0,0,0,0,0,0,0,0],"id":8,"left_children":[1,3,-1,5,7,9,11,13,15,-1,-1,-1,-1,-1,-1,-1,-1],"loss_changes":[6.869343E1,7.6046036E1,0E0,5.135647E1,4.755989E0,6.085803E1,5.1970406E0,1.3850946E0,1.0530624E0,0E0,0E0,0E0,0E0,0E0,0E0,0E0,0E0],"parents":[2147483647,0,0,1,1,3,3,4,4,5,5,6,6,7,7,8,8],"right_children":[2,4,-1,6,8,10,12,14,16,-1,-1,-1,-1,-1,-1,-1,-1],"split_conditions":[1E0,6.9E0,8.825847E-2,5.9E0,8.9E0,1E0,1E0,2.022E3,1E0,-1.0023954E-2,7.9047464E-2,3.7009228E-2,7.026806E-2,-3.9533786E-2,-1.0006758E-2,-5.145816E-2,-3.3814345E-2],"split_indices":[8,1,0,1,1,11,10,0,12,0,0,0,0,0,0,0,0],"split_type":[0,0,0,0,0,0,0,0,0,0,0,0,0,0,0,0,0],"sum_hessian":[4.2E2,4E2,2E1,3E2,1E2,2.4E2,6E1,2E1,8E1,2.2E2,2E1,4E1,2E1,5E0,1.5E1,6E1,2E1],"tree_param":{"num_deleted":"0","num_feature":"22","num_nodes":"17","size_leaf_vector":"1"}},{"base_weights":[2.329038E-3,-8.559317E-2,8.4055685E-2,1.5446112E-1,-8.00155E-1,2.627241E-1,-6.5077804E-2,-3.6183077E-1,-9.039162E-1,1.9242119E-2,-6.337713E-2,-3.7886545E-2,-9.537691E-3,-4.8927438E-2,-3.220414E-2],"categories":[],"categories_nodes":[],"categories_segments":[],"categories_sizes":[],"default_left":[0,0,0,0,0,0,0,0,0,0,0,0,0,0,0],"id":9,"left_children":[1,3,-1,5,7,9,-1,11,13,-1,-1,-1,-1,-1,-1],"loss_changes":[6.2284523E1,6.890858E1,0E0,4.7789406E1,4.2665176E0,5.299926E1,0E0,1.2777772E0,9.404907E-1,0E0,0E0,0E0,0E0,0E0,0E0],"parents":[2147483647,0,0,1,1,3,3,4,4,5,5,7,7,8,8],"right_children":[2,4,-1,6,8,10,-1,12,14,-1,-1,-1,-1,-1,-1],"split_conditions":[1E0,6.9E0,8.4055685E-2,1E0,8.9E0,1E0,-6.5077804E-2,2.022E3,1E0,1.9242119E-2,-6.337713E-2,-3.7886545E-2,-9.537691E-3,-4.8927438E-2,-3.220414E-2],"split_indices":[8,1,0,19,1,6,0,0,12,0,0,0,0,0,0],"split_type":[0,0,0,0,0,0,0,0,0,0,0,0,0,0,0],"sum_hessian":[4.2E2,4E2,2E1,3E2,1E2,2.8E2,2E1,2E1,8E1,2.6E2,2E1,5E0,1.5E1,6E1,2E1],"tree_param":{"num_deleted":"0","num_feature":"22","num_nodes":"15","size_leaf_vector":"1"}},{"base_weights":[1.8474598E-3,-8.190647E-2,8.005303E-2,1.4637521E-1,-7.614201E-1,-4.880063E-2,9.1508013E-1,-3.4599754E-1,-8.5972196E-1,-9.727398E-3,7.436701E-2,3.4265257E-2,6.600567E-2,-3.6307942E-2,-9.090612E-3,-4.652117E-2,-3.0670611E-2],"categories":[],"categories_nodes":[],"categories_segments":[],"categories_sizes":[],"default_left":[0,0,0,0,0,0,0,0,0,0,0,0,0,0,0,0,0],"id":10,"left_children":[1,3,-1,5,7,9,11,13,15,-1,-1,-1,-1,-1,-1,-1,-1],"loss_changes":[5.652004E1,6.2314774E1,0E0,4.5204475E1,3.8270607E0,5.424647E1,4.772377E0,1.1787305E0,8.398361E-1,0E0,0E0,0E0,0E0,0E0,0E0,0E0,0E0],"parents":[2147483647,0,0,1,1,3,3,4,4,5,5,6,6,7,7,8,8],"right_children":[2,4,-1,6,8,10,12,14,16,-1,-1,-1,-1,-1,-1,-1,-1],"split_conditions":[1E0,6.9E0,8.005303E-2,5.9E0,8.9E0,1E0,1E0,2.022E3,1E0,-9.727398E-3,7.436701E-2,3.4265257E-2,6.600567E-2,-3.6307942E-2,-9.090612E-3,-4.652117E-2,-3.0670611E-2],"split_indices":[8,1,0,1,1,11,10,0,12,0,0,0,0,0,0,0,0],"split_type":[0,0,0,0,0,0,0,0,0,0,0,0,0,0,0,0,0],"sum_hessian":[4.2E2,4E2,2E1,3E2,1E2,2.4E2,6E1,2E1,8E1,2.2E2,2E1,4E1,2E1,5E0,1.5E1,6E1,2E1],"tree_param":{"num_deleted":"0","num_feature":"22","num_nodes":"17","size_leaf_vector":"1"}},{"base_weights":[2.0457418E-3,-7.770562E-2,7.624098E-2,1.3960429E-1,-7.245628E-1,2.4148564E-1,-6.1515648E-2,-3.3085948E-1,-8.176888E-1,1.781873E-2,-5.989596E-2,-3.4795113E-2,-8.664486E-3,-4.4233244E-2,-2.9210104E-2],"categories":[],"categories_nodes":[],"categories_segments":[],"categories_sizes":[],"default_left":[0,0,0,0,0,0,0,0,0,0,0,0,0,0,0],"id":11,"left_children":[1,3,-1,5,7,9,-1,11,13,-1,-1,-1,-1,-1,-1],"loss_changes":[5.1246113E1,5.6469112E1,0E0,4.230738E1,3.4325256E0,4.6896355E1,0E0,1.087321E0,7.4985886E-1,0E0,0E0,0E0,0E0,0E0,0E0],"parents":[2147483647,0,0,1,1,3,3,4,4,5,5,7,7,8,8],"right_children":[2,4,-1,6,8,10,-1,12,14,-1,-1,-1,-1,-1,-1],"split_conditions":[1E0,6.9E0,7.624098E-2,1E0,8.9E0,1E0,-6.1515648E-2,2.022E3,1E0,1.781873E-2,-5.989596E-2,-3.4795113E-2,-8.664486E-3,-4.4233244E-2,-2.9210104E-2],"split_indices":[8,1,0,19,1,6,0,0,12,0,0,0,0,0,0],"split_type":[0,0,0,0,0,0,0,0,0,0,0,0,0,0,0],"sum_hessian":[4.2E2,4E2,2E1,3E2,1E2,2.8E2,2E1,2E1,8E1,2.6E2,2E1,5E0,1.5E1,6E1,2E1],"tree_param":{"num_deleted":"0","num_feature":"22","num_nodes":"15","size_leaf_vector":"1"}},{"base_weights":[1.6008288E-3,-7.437018E-2,7.261046E-2,1.3227995E-1,-6.8949217E-1,-5.080405E-2,8.534433E-1,-3.1638598E-1,-7.7771115E-1,7.090404E-2,-9.507573E-3,3.1724576E-2,6.2014025E-2,-3.3345312E-2,-8.258338E-3,-4.205784E-2,-2.7819145E-2],"categories":[],"categories_nodes":[],"categories_segments":[],"categories_sizes":[],"default_left":[0,0,0,0,0,0,0,0,0,0,0,0,0,0,0,0,0],"id":12,"left_children":[1,3,-1,5,7,9,11,13,15,-1,-1,-1,-1,-1,-1,-1,-1],"loss_changes":[4.650396E1,5.106434E1,0E0,3.978543E1,3.0783653E0,4.959881E1,4.379673E0,1.0029628E0,6.6941833E-1,0E0,0E0,0E0,0E0,0E0,0E0,0E0,0E0],"parents":[2147483647,0,0,1,1,3,3,4,4,5,5,6,6,7,7,8,8],"right_children":[2,4,-1,6,8,10,12,14,16,-1,-1,-1,-1,-1,-1,-1,-1],"split_conditions":[1E0,6.9E0,7.261046E-2,5.9E0,8.9E0,8E-1,1E0,2.022E3,1E0,7.090404E-2,-9.507573E-3,3.1724576E-2,6.2014025E-2,-3.3345312E-2,-8.258338E-3,-4.205784E-2,-2.7819145E-2],"split_indices":[8,1,0,1,1,1,10,0,12,0,0,0,0,0,0,0,0],"split_type":[0,0,0,0,0,0,0,0,0,0,0,0,0,0,0,0,0],"sum_hessian":[4.2E2,4E2,2E1,3E2,1E2,2.4E2,6E1,2E1,8E1,2E1,2.2E2,4E1,2E1,5E0,1.5E1,6E1,2E1],"tree_param":{"num_deleted":"0","num_feature":"22","num_nodes":"17","size_leaf_vector":"1"}},{"base_weights":[1.7969443E-3,-7.1880475E-2,7.0429966E-2,-1.5188518E-1,6.9152825E-2,6.752766E-2,-2.388639E-1,-1.6280863E-2,5.9060972E-2],"categories":[],"categories_nodes":[],"categories_segments":[],"categories_sizes":[],"default_left":[0,0,0,0,0,0,0,0,0],"id":13,"left_children":[1,3,-1,5,-1,-1,7,-1,-1],"loss_changes":[4.3737717E1,4.6887188E1,0E0,5.0111744E1,0E0,0E0,4.485873E1,0E0,0E0],"parents":[2147483647,0,0,1,1,3,3,6,6],"right_children":[2,4,-1,6,-1,-1,8,-1,-1],"split_conditions":[1E0,1E0,7.0429966E-2,8E-1,6.9152825E-2,6.752766E-2,1E0,-1.6280863E-2,5.9060972E-2],"split_indices":[11,8,0,1,0,0,10,0,0],"split_type":[0,0,0,0,0,0,0,0,0],"sum_hessian":[4.2E2,4E2,2E1,3.8E2,2E1,2E1,3.6E2,3.4E2,2E1],"tree_param":{"num_deleted":"0","num_feature":"22","num_nodes":"9","size_leaf_vector":"1"}},{"base_weights":[2.3006701E-3,-6.783891E-2,6.7076154E-2,-1.4400138E-1,6.5859824E-2,6.431205E-2,-2.2680219E-1,-1.5469206E-2,5.6248542E-2],"categories":[],"categories_nodes":[],"categories_segments":[],"categories_sizes":[],"default_left":[0,0,0,0,0,0,0,0,0],"id":14,"left_children":[1,3,-1,5,-1,-1,7,-1,-1],"loss_changes":[3.9636585E1,4.249026E1,0E0,4.5411728E1,0E0,0E0,4.06472E1,0E0,0E0],"parents":[2147483647,0,0,1,1,3,3,6,6],"right_children":[2,4,-1,6,-1,-1,8,-1,-1],"split_conditions":[1E0,1E0,6.7076154E-2,8E-1,6.5859824E-2,6.431205E-2,1E0,-1.5469206E-2,5.6248542E-2],"split_indices":[11,8,0,1,0,0,10,0,0],"split_type":[0,0,0,0,0,0,0,0,0],"sum_hessian":[4.2E2,4E2,2E1,3.8E2,2E1,2E1,3.6E2,3.4E2,2E1],"tree_param":{"num_deleted":"0","num_feature":"22","num_nodes":"9","size_leaf_vector":"1"}},{"base_weights":[2.751021E-3,-6.402065E-2,6.3882045E-2,-1.3652548E-1,6.272365E-2,6.1249573E-2,-2.1534912E-1,-1.4698014E-2,5.3570043E-2],"categories":[],"categories_nodes":[],"categories_segments":[],"categories_sizes":[],"default_left":[0,0,0,0,0,0,0,0,0],"id":15,"left_children":[1,3,-1,5,-1,-1,7,-1,-1],"loss_changes":[3.5920063E1,3.8505733E1,0E0,4.115261E1,0E0,0E0,3.6831142E1,0E0,0E0],"parents":[2147483647,0,0,1,1,3,3,6,6],"right_children":[2,4,-1,6,-1,-1,8,-1,-1],"split_conditions":[1E0,1E0,6.3882045E-2,8E-1,6.272365E-2,6.1249573E-2,1E0,-1.4698014E-2,5.3570043E-2],"split_indices":[11,8,0,1,0,0,10,0,0],"split_type":[0,0,0,0,0,0,0,0,0],"sum_hessian":[4.2E2,4E2,2E1,3.8E2,2E1,2E1,3.6E2,3.4E2,2E1],"tree_param":{"num_deleted":"0","num_feature":"22","num_nodes":"9","size_leaf_vector":"1"}},{"base_weights":[3.1520282E-3,-6.04135E-2,6.084004E-2,-1.294364E-1,5.9736807E-2,5.833293E-2,-2.0447397E-1,-1.3965267E-2,5.101909E-2],"categories":[],"categories_nodes":[],"categories_segments":[],"categories_sizes":[],"default_left":[0,0,0,0,0,0,0,0,0],"id":16,"left_children":[1,3,-1,5,-1,-1,7,-1,-1],"loss_changes":[3.255207E1,3.489491E1,0E0,3.7293015E1,0E0,0E0,3.3373405E1,0E0,0E0],"parents":[2147483647,0,0,1,1,3,3,6,6],"right_children":[2,4,-1,6,-1,-1,8,-1,-1],"split_conditions":[1E0,1E0,6.084004E-2,8E-1,5.9736807E-2,5.833293E-2,1E0,-1.3965267E-2,5.101909E-2],"split_indices":[11,8,0,1,0,0,10,0,0],"split_type":[0,0,0,0,0,0,0,0,0],"sum_hessian":[4.2E2,4E2,2E1,3.8E2,2E1,2E1,3.6E2,3.4E2,2E1],"tree_param":{"num_deleted":"0","num_feature":"22","num_nodes":"9","size_leaf_vector":"1"}},{"base_weights":[3.5073855E-3,1.1445298E-1,-6.5312976E-1,1.8922395E-1,-5.5256765E-2,-3.6489666E-2,-2.3617597E-2,2.7129385E-1,-5.3714197E-2,1.7810518E-2,-4.793807E-2],"categories":[],"categories_nodes":[],"categories_segments":[],"categories_sizes":[],"default_left":[0,0,0,0,0,0,0,0,0,0,0],"id":17,"left_children":[1,3,5,7,-1,-1,-1,9,-1,-1,-1],"loss_changes":[3.0745024E1,3.3128635E1,5.0068474E-1,3.5651775E1,0E0,0E0,0E0,3.3870605E1,0E0,0E0,0E0],"parents":[2147483647,0,0,1,1,2,2,3,3,7,7],"right_children":[2,4,6,8,-1,-1,-1,10,-1,-1,-1],"split_conditions":[9.6E0,1E0,1E0,1E0,-5.5256765E-2,-3.6489666E-2,-2.3617597E-2,1E0,-5.3714197E-2,1.7810518E-2,-4.793807E-2],"split_indices":[1,19,12,6,0,0,0,5,0,0,0],"split_type":[0,0,0,0,0,0,0,0,0,0,0],"sum_hessian":[4.2E2,3.6E2,6E1,3.4E2,2E1,4E1,2E1,3.2E2,2E1,3E2,2E1],"tree_param":{"num_deleted":"0","num_feature":"22","num_nodes":"11","size_leaf_vector":"1"}},{"base_weights":[2.8588644E-3,-5.6798555E-2,5.7094764E-2,-1.21560976E-1,5.604408E-2,5.470705E-2,-1.9194375E-1,-1.3100164E-2,4.7741484E-2],"categories":[],"categories_nodes":[],"categories_segments":[],"categories_sizes":[],"default_left":[0,0,0,0,0,0,0,0,0],"id":18,"left_children":[1,3,-1,5,-1,-1,7,-1,-1],"loss_changes":[2.8672642E1,3.072029E1,0E0,3.281008E1,0E0,0E0,2.9253775E1,0E0,0E0],"parents":[2147483647,0,0,1,1,3,3,6,6],"right_children":[2,4,-1,6,-1,-1,8,-1,-1],"split_conditions":[1E0,1E0,5.7094764E-2,8E-1,5.604408E-2,5.470705E-2,1E0,-1.3100164E-2,4.7741484E-2],"split_indices":[11,8,0,1,0,0,10,0,0],"split_type":[0,0,0,0,0,0,0,0,0],"sum_hessian":[4.2E2,4E2,2E1,3.8E2,2E1,2E1,3.6E2,3.4E2,2E1],"tree_param":{"num_deleted":"0","num_feature":"22","num_nodes":"9","size_leaf_vector":"1"}},{"base_weights":[3.196875E-3,1.06561914E-1,-6.085732E-1,1.7686085E-1,-5.2001674E-2,-3.407065E-2,-4.3738264E-1,2.539976E-1,-5.053256E-2,-2.589633E-2,-1.6690707E-2,1.6685458E-2,-4.5031488E-2],"categories":[],"categories_nodes":[],"categories_segments":[],"categories_sizes":[],"default_left":[0,0,0,0,0,0,0,0,0,0,0,0,0],"id":19,"left_children":[1,3,5,7,-1,-1,9,11,-1,-1,-1,-1,-1],"loss_changes":[2.6687054E1,2.9282148E1,4.625988E-1,3.1492582E1,0E0,0E0,2.286911E-3,2.9844467E1,0E0,0E0,0E0,0E0,0E0],"parents":[2147483647,0,0,1,1,2,2,3,3,6,6,7,7],"right_children":[2,4,6,8,-1,-1,10,12,-1,-1,-1,-1,-1],"split_conditions":[9.6E0,1E0,1E0,1E0,-5.2001674E-2,-3.407065E-2,2.023E3,1E0,-5.053256E-2,-2.589633E-2,-1.6690707E-2,1.6685458E-2,-4.5031488E-2],"split_indices":[1,19,12,6,0,0,0,5,0,0,0,0,0],"split_type":[0,0,0,0,0,0,0,0,0,0,0,0,0],"sum_hessian":[4.2E2,3.6E2,6E1,3.4E2,2E1,4E1,2E1,3.2E2,2E1,9E0,1.1E1,3E2,2E1],"tree_param":{"num_deleted":"0","num_feature":"22","num_nodes":"13","size_leaf_vector":"1"}},{"base_weights":[2.5440555E-3,-5.344925E-2,5.3581424E-2,-1.14218034E-1,5.2580763E-2,5.1307406E-2,-1.8023872E-1,-1.2291652E-2,4.4673536E-2],"categories":[],"categories_nodes":[],"categories_segments":[],"categories_sizes":[],"default_left":[0,0,0,0,0,0,0,0,0],"id":20,"left_children":[1,3,-1,5,-1,-1,7,-1,-1],"loss_changes":[2.5258995E1,2.7048637E1,0E0,2.8869593E1,0E0,0E0,2.5644594E1,0E0,0E0],"parents":[2147483647,0,0,1,1,3,3,6,6],"right_children":[2,4,-1,6,-1,-1,8,-1,-1],"split_conditions":[1E0,1E0,5.3581424E-2,8E-1,5.2580763E-2,5.1307406E-2,1E0,-1.2291652E-2,4.4673536E-2],"split_indices":[11,8,0,1,0,0,10,0,0],"split_type":[0,0,0,0,0,0,0,0,0],"sum_hessian":[4.2E2,4E2,2E1,3.8E2,2E1,2E1,3.6E2,3.4E2,2E1],"tree_param":{"num_deleted":"0","num_feature":"22","num_nodes":"9","size_leaf_vector":"1"}},{"base_weights":[2.8678179E-3,9.920589E-2,-5.6731105E-1,1.6530253E-1,-4.894009E-2,-7.1341515E-1,-4.7864038E-1,2.3780483E-1,-4.7540933E-2,-3.8404044E-2,-1.9243438E-2,-2.8573284E-2,-3.8114816E-1,1.563158E-2,-4.230181E-2,-1.1478453E-2,-2.3109706E-2],"categories":[],"categories_nodes":[],"categories_segments":[],"categories_sizes":[],"default_left":[0,0,0,0,0,0,0,0,0,0,0,0,0,0,0,0,0],"id":21,"left_children":[1,3,5,7,-1,9,11,13,-1,-1,-1,-1,15,-1,-1,-1,-1],"loss_changes":[2.3181782E1,2.5884016E1,4.4879532E-1,2.7820293E1,0E0,8.155441E-2,1.532259E-1,2.6297703E1,0E0,0E0,0E0,0E0,1.7644691E-1,0E0,0E0,0E0,0E0],"parents":[2147483647,0,0,1,1,2,2,3,3,5,5,6,6,7,7,12,12],"right_children":[2,4,6,8,-1,10,12,14,-1,-1,-1,-1,16,-1,-1,-1,-1],"split_conditions":[9.6E0,1E0,1.04E1,1E0,-4.894009E-2,2.025E3,2.023E3,1E0,-4.7540933E-2,-3.8404044E-2,-1.9243438E-2,-2.8573284E-2,2.024E3,1.563158E-2,-4.230181E-2,-1.1478453E-2,-2.3109706E-2],"split_indices":[1,19,1,6,0,0,0,5,0,0,0,0,0,0,0,0,0],"split_type":[0,0,0,0,0,0,0,0,0,0,0,0,0,0,0,0,0],"sum_hessian":[4.2E2,3.6E2,6E1,3.4E2,2E1,2E1,4E1,3.2E2,2E1,1.6E1,4E0,1.8E1,2.2E1,3E2,2E1,9E0,1.3E1],"tree_param":{"num_deleted":"0","num_feature":"22","num_nodes":"17","size_leaf_vector":"1"}},{"base_weights":[2.1449374E-3,-5.0416246E-2,5.0285555E-2,-1.07445106E-1,4.9332548E-2,6.405274E-1,-1.970622E-1,4.8119828E-2,1.440785E-2,-1.3201713E-2,4.1801866E-2],"categories":[],"categories_nodes":[],"categories_segments":[],"categories_sizes":[],"default_left":[0,0,0,0,0,0,0,0,0,0,0],"id":22,"left_children":[1,3,-1,5,-1,7,9,-1,-1,-1,-1],"loss_changes":[2.2257874E1,2.3822258E1,0E0,2.5665083E1,0E0,4.3727837E0,2.3814116E1,0E0,0E0,0E0,0E0],"parents":[2147483647,0,0,1,1,3,3,5,5,6,6],"right_children":[2,4,-1,6,-1,8,10,-1,-1,-1,-1],"split_conditions":[1E0,1E0,5.0285555E-2,1.5E0,4.9332548E-2,8E-1,1E0,4.8119828E-2,1.440785E-2,-1.3201713E-2,4.1801866E-2],"split_indices":[11,8,0,1,0,1,10,0,0,0,0],"split_type":[0,0,0,0,0,0,0,0,0,0,0],"sum_hessian":[4.2E2,4E2,2E1,3.8E2,2E1,4E1,3.4E2,2E1,2E1,3.2E2,2E1],"tree_param":{"num_deleted":"0","num_feature":"22","num_nodes":"11","size_leaf_vector":"1"}},{"base_weights":[2.4907636E-3,-4.754516E-2,4.7891002E-2,-1.0183367E-1,4.6983376E-2,5.0722815E-2,-5.2526474E-1,-6.5990896E-3,3.5591055E-2,-1.2799801E-2,-2.942952E-2],"categories":[],"categories_nodes":[],"categories_segments":[],"categories_sizes":[],"default_left":[0,0,0,0,0,0,0,0,0,0,0],"id":23,"left_children":[1,3,-1,5,-1,7,9,-1,-1,-1,-1],"loss_changes":[2.016967E1,2.1587006E1,0E0,2.463816E1,0E0,3.4034733E1,1.571537E0,0E0,0E0,0E0,0E0],"parents":[2147483647,0,0,1,1,3,3,5,5,6,6],"right_children":[2,4,-1,6,-1,8,10,-1,-1,-1,-1],"split_conditions":[1E0,1E0,4.7891002E-2,6.9E0,4.6983376E-2,5.9E0,8.9E0,-6.5990896E-3,3.5591055E-2,-1.2799801E-2,-2.942952E-2],"split_indices":[11,8,0,1,0,1,1,0,0,0,0],"split_type":[0,0,0,0,0,0,0,0,0,0,0],"sum_hessian":[4.2E2,4E2,2E1,3.8E2,2E1,2.8E2,1E2,2.2E2,6E1,2E1,8E1],"tree_param":{"num_deleted":"0","num_feature":"22","num_nodes":"11","size_leaf_vector":"1"}},{"base_weights":[2.5601366E-3,4.614266E-2,-4.5641143E-2,-9.831628E-2,4.5610484E-2,-1.558223E-1,4.4746067E-2,-1.0595421E-2,3.811648E-2],"categories":[],"categories_nodes":[],"categories_segments":[],"categories_sizes":[],"default_left":[0,0,0,0,0,0,0,0,0],"id":24,"left_children":[1,-1,3,5,-1,7,-1,-1,-1],"loss_changes":[1.8717386E1,0E0,2.032211E1,2.1901081E1,0E0,1.8751446E1,0E0,0E0,0E0],"parents":[2147483647,0,0,2,2,3,3,5,5],"right_children":[2,-1,4,6,-1,8,-1,-1,-1],"split_conditions":[8E-1,4.614266E-2,1E0,1E0,4.5610484E-2,1E0,4.4746067E-2,-1.0595421E-2,3.811648E-2],"split_indices":[1,0,11,8,0,10,0,0,0],"split_type":[0,0,0,0,0,0,0,0,0],"sum_hessian":[4.2E2,2E1,4E2,3.8E2,2E1,3.6E2,2E1,3.4E2,2E1],"tree_param":{"num_deleted":"0","num_feature":"22","num_nodes":"9","size_leaf_vector":"1"}},{"base_weights":[2.8217467E-3,5.0264504E-2,-4.5162167E-2,1.4650719E-1,-4.8857188E-1,2.1298255E-1,-4.3829642E-2,-6.2979746E-1,-4.0432042E-1,1.4066479E-2,-3.8840003E-2,-3.409201E-2,-1.6344635E-2,-2.4698548E-2,-1.5634106E-2],"categories":[],"categories_nodes":[],"categories_segments":[],"categories_sizes":[],"default_left":[0,0,0,0,0,0,0,0,0,0,0,0,0,0,0],"id":25,"left_children":[1,3,-1,5,7,9,-1,11,13,-1,-1,-1,-1,-1,-1],"loss_changes":[1.8142603E1,2.0867062E1,0E0,2.3378431E1,4.7116566E-1,2.1933765E1,0E0,1.081543E-1,1.8237638E-1,0E0,0E0,0E0,0E0,0E0,0E0],"parents":[2147483647,0,0,1,1,3,3,4,4,5,5,7,7,8,8],"right_children":[2,4,-1,6,8,10,-1,12,14,-1,-1,-1,-1,-1,-1],"split_conditions":[1E0,9.6E0,-4.5162167E-2,1E0,1.04E1,1E0,-4.3829642E-2,2.025E3,2.023E3,1.4066479E-2,-3.8840003E-2,-3.409201E-2,-1.6344635E-2,-2.4698548E-2,-1.5634106E-2],"split_indices":[19,1,0,6,1,5,0,0,0,0,0,0,0,0,0],"split_type":[0,0,0,0,0,0,0,0,0,0,0,0,0,0,0],"sum_hessian":[4.2E2,4E2,2E1,3.4E2,6E1,3.2E2,2E1,2E1,4E1,3E2,2E1,1.6E1,4E0,1.8E1,2.2E1],"tree_param":{"num_deleted":"0","num_feature":"22","num_nodes":"15","size_leaf_vector":"1"}},{"base_weights":[2.1948472E-3,4.327556E-2,-4.302171E-2,-9.2426695E-2,4.2768728E-2,-1.463481E-1,4.194547E-2,-9.940899E-3,3.563158E-2],"categories":[],"categories_nodes":[],"categories_segments":[],"categories_sizes":[],"default_left":[0,0,0,0,0,0,0,0,0],"id":26,"left_children":[1,-1,3,5,-1,7,-1,-1,-1],"loss_changes":[1.6471474E1,0E0,1.7877548E1,1.9256193E1,0E0,1.6412155E1,0E0,0E0,0E0],"parents":[2147483647,0,0,2,2,3,3,5,5],"right_children":[2,-1,4,6,-1,8,-1,-1,-1],"split_conditions":[8E-1,4.327556E-2,1E0,1E0,4.2768728E-2,1E0,4.194547E-2,-9.940899E-3,3.563158E-2],"split_indices":[1,0,11,8,0,10,0,0,0],"split_type":[0,0,0,0,0,0,0,0,0],"sum_hessian":[4.2E2,2E1,4E2,3.8E2,2E1,3.6E2,2E1,3.4E2,2E1],"tree_param":{"num_deleted":"0","num_feature":"22","num_nodes":"9","size_leaf_vector":"1"}},{"base_weights":[2.4501139E-3,4.712605E-2,-4.253821E-2,1.3696365E-1,-4.5585337E-1,1.9949421E-1,-4.126914E-2,-5.218376E-1,-3.0531976E-1,1.3185187E-2,-3.6517102E-2,-2.956209E-2,-2.1379199E-2,-1.89381E-2,-1.0933729E-2],"categories":[],"categories_nodes":[],"categories_segments":[],"categories_sizes":[],"default_left":[0,0,0,0,0,0,0,0,0,0,0,0,0,0,0],"id":27,"left_children":[1,3,-1,5,7,9,-1,11,13,-1,-1,-1,-1,-1,-1],"loss_changes":[1.6087835E1,1.8182207E1,0E0,2.0684696E1,4.4657612E-1,1.9357689E1,0E0,1.5398979E-2,5.0806046E-2,0E0,0E0,0E0,0E0,0E0,0E0],"parents":[2147483647,0,0,1,1,3,3,4,4,5,5,7,7,8,8],"right_children":[2,4,-1,6,8,10,-1,12,14,-1,-1,-1,-1,-1,-1],"split_conditions":[1E0,9.6E0,-4.253821E-2,1E0,1E0,1E0,-4.126914E-2,1.04E1,2.023E3,1.3185187E-2,-3.6517102E-2,-2.956209E-2,-2.1379199E-2,-1.89381E-2,-1.0933729E-2],"split_indices":[19,1,0,6,12,5,0,1,0,0,0,0,0,0,0],"split_type":[0,0,0,0,0,0,0,0,0,0,0,0,0,0,0],"sum_hessian":[4.2E2,4E2,2E1,3.4E2,6E1,3.2E2,2E1,4E1,2E1,3E2,2E1,2E1,2E1,9E0,1.1E1],"tree_param":{"num_deleted":"0","num_feature":"22","num_nodes":"15","size_leaf_vector":"1"}},{"base_weights":[1.8811747E-3,4.4407133E-2,-4.0512588E-2,1.2992603E-1,-4.343855E-1,1.8944682E-1,-3.930394E-2,-4.9698818E-1,-2.9147622E-1,1.2596277E-2,-3.575514E-2,-2.8154371E-2,-2.0361142E-2,-1.8085888E-2,-1.0432598E-2],"categories":[],"categories_nodes":[],"categories_segments":[],"categories_sizes":[],"default_left":[0,0,0,0,0,0,0,0,0,0,0,0,0,0,0],"id":28,"left_children":[1,3,-1,5,7,9,-1,11,13,-1,-1,-1,-1,-1,-1],"loss_changes":[1.4575945E1,1.647571E1,0E0,1.8740696E1,4.00877E-1,1.8321499E1,0E0,1.3967514E-2,4.669869E-2,0E0,0E0,0E0,0E0,0E0,0E0],"parents":[2147483647,0,0,1,1,3,3,4,4,5,5,7,7,8,8],"right_children":[2,4,-1,6,8,10,-1,12,14,-1,-1,-1,-1,-1,-1],"split_conditions":[1E0,9.6E0,-4.0512588E-2,1E0,1E0,1E0,-3.930394E-2,1.04E1,2.023E3,1.2596277E-2,-3.575514E-2,-2.8154371E-2,-2.0361142E-2,-1.8085888E-2,-1.0432598E-2],"split_indices":[19,1,0,6,12,14,0,1,0,0,0,0,0,0,0],"split_type":[0,0,0,0,0,0,0,0,0,0,0,0,0,0,0],"sum_hessian":[4.2E2,4E2,2E1,3.4E2,6E1,3.2E2,2E1,4E1,2E1,3E2,2E1,2E1,2E1,9E0,1.1E1],"tree_param":{"num_deleted":"0","num_feature":"22","num_nodes":"15","size_leaf_vector":"1"}},{"base_weights":[1.3595341E-3,3.998712E-2,-4.0454432E-2,-8.612621E-2,3.9504427E-2,-1.3594638E-1,3.8720366E-2,-9.216827E-3,3.2814573E-2],"categories":[],"categories_nodes":[],"categories_segments":[],"categories_sizes":[],"default_left":[0,0,0,0,0,0,0,0,0],"id":29,"left_children":[1,-1,3,5,-1,7,-1,-1,-1],"loss_changes":[1.408683E1,0E0,1.5278929E1,1.643948E1,0E0,1.39604645E1,0E0,0E0,0E0],"parents":[2147483647,0,0,2,2,3,3,5,5],"right_children":[2,-1,4,6,-1,8,-1,-1,-1],"split_conditions":[8E-1,3.998712E-2,1E0,1E0,3.9504427E-2,1E0,3.8720366E-2,-9.216827E-3,3.2814573E-2],"split_indices":[1,0,11,8,0,7,0,0,0],"split_type":[0,0,0,0,0,0,0,0,0],"sum_hessian":[4.2E2,2E1,4E2,3.8E2,2E1,3.6E2,2E1,3.4E2,2E1],"tree_param":{"num_deleted":"0","num_feature":"22","num_nodes":"9","size_leaf_vector":"1"}},{"base_weights":[1.6283696E-3,4.1661453E-2,-3.814452E-2,1.2141615E-1,-4.0486336E-1,1.7738365E-1,-3.6993433E-2,-5.2749574E-1,-3.3217692E-1,1.1934341E-2,-3.5487104E-2,-2.8870067E-2,-1.2615879E-2,-2.075568E-2,-1.2461079E-2],"categories":[],"categories_nodes":[],"categories_segments":[],"categories_sizes":[],"default_left":[0,0,0,0,0,0,0,0,0,0,0,0,0,0,0],"id":30,"left_children":[1,3,-1,5,7,9,-1,11,13,-1,-1,-1,-1,-1,-1],"loss_changes":[1.2916927E1,1.432975E1,0E0,1.6568787E1,3.6851406E-1,1.7626549E1,0E0,1.4270306E-1,1.7862654E-1,0E0,0E0,0E0,0E0,0E0,0E0],"parents":[2147483647,0,0,1,1,3,3,4,4,5,5,7,7,8,8],"right_children":[2,4,-1,6,8,10,-1,12,14,-1,-1,-1,-1,-1,-1],"split_conditions":[1E0,9.6E0,-3.814452E-2,1E0,1.04E1,1E0,-3.6993433E-2,2.025E3,2.023E3,1.1934341E-2,-3.5487104E-2,-2.8870067E-2,-1.2615879E-2,-2.075568E-2,-1.2461079E-2],"split_indices":[19,1,0,6,1,3,0,0,0,0,0,0,0,0,0],"split_type":[0,0,0,0,0,0,0,0,0,0,0,0,0,0,0],"sum_hessian":[4.2E2,4E2,2E1,3.4E2,6E1,3.2E2,2E1,2E1,4E1,3E2,2E1,1.6E1,4E0,1.8E1,2.2E1],"tree_param":{"num_deleted":"0","num_feature":"22","num_nodes":"15","size_leaf_vector":"1"}},{"base_weights":[1.135074E-3,3.7514675E-2,-3.8100492E-2,-8.09485E-2,3.705496E-2,-1.2767546E-1,3.630824E-2,-8.764441E-3,3.2577734E-2],"categories":[],"categories_nodes":[],"categories_segments":[],"categories_sizes":[],"default_left":[0,0,0,0,0,0,0,0,0],"id":31,"left_children":[1,-1,3,5,-1,7,-1,-1,-1],"loss_changes":[1.2403316E1,0E0,1.3448241E1,1.4461728E1,0E0,1.3507946E1,0E0,0E0,0E0],"parents":[2147483647,0,0,2,2,3,3,5,5],"right_children":[2,-1,4,6,-1,8,-1,-1,-1],"split_conditions":[8E-1,3.7514675E-2,1E0,1E0,3.705496E-2,1E0,3.630824E-2,-8.764441E-3,3.2577734E-2],"split_indices":[1,0,11,8,0,10,0,0,0],"split_type":[0,0,0,0,0,0,0,0,0],"sum_hessian":[4.2E2,2E1,4E2,3.8E2,2E1,3.6E2,2E1,3.4E2,2E1],"tree_param":{"num_deleted":"0","num_feature":"22","num_nodes":"9","size_leaf_vector":"1"}},{"base_weights":[1.3982177E-3,3.908023E-2,-3.5910767E-2,1.5560456E-1,-2.3184882E-1,2.2399504E-1,-7.0180136E-1,-4.2155448E-1,3.4579273E-2,1.516282E-2,-3.481449E-2,-4.1608702E-2,-2.538143E-2,-1.7528323E-2,-3.3764567E-2],"categories":[],"categories_nodes":[],"categories_segments":[],"categories_sizes":[],"default_left":[0,0,0,0,0,0,0,0,0,0,0,0,0,0,0],"id":32,"left_children":[1,3,-1,5,7,9,11,13,-1,-1,-1,-1,-1,-1,-1],"loss_changes":[1.1444108E1,1.2695576E1,0E0,1.6634594E1,2.1488407E1,1.9249287E1,1.09176636E-1,1.5825062E0,0E0,0E0,0E0,0E0,0E0,0E0,0E0],"parents":[2147483647,0,0,1,1,3,3,4,4,5,5,6,6,7,7],"right_children":[2,4,-1,6,8,10,12,14,-1,-1,-1,-1,-1,-1,-1],"split_conditions":[1E0,6.9E0,-3.5910767E-2,1E0,1E0,1E0,2.024E3,1E0,3.4579273E-2,1.516282E-2,-3.481449E-2,-4.1608702E-2,-2.538143E-2,-1.7528323E-2,-3.3764567E-2],"split_indices":[19,1,0,5,8,6,0,14,0,0,0,0,0,0,0],"split_type":[0,0,0,0,0,0,0,0,0,0,0,0,0,0,0],"sum_hessian":[4.2E2,4E2,2E1,2.8E2,1.2E2,2.6E2,2E1,1E2,2E1,2.4E2,2E1,1E1,1E1,8E1,2E1],"tree_param":{"num_deleted":"0","num_feature":"22","num_nodes":"15","size_leaf_vector":"1"}},{"base_weights":[9.975239E-4,3.500623E-2,-3.56176E-2,-7.5594194E-2,3.4568403E-2,-1.1809722E-1,3.2932643E-2,-8.122035E-3,3.0379003E-2],"categories":[],"categories_nodes":[],"categories_segments":[],"categories_sizes":[],"default_left":[0,0,0,0,0,0,0,0,0],"id":33,"left_children":[1,-1,3,5,-1,7,-1,-1,-1],"loss_changes":[1.0801958E1,0E0,1.1706288E1,1.1967928E1,0E0,1.1715333E1,0E0,0E0,0E0],"parents":[2147483647,0,0,2,2,3,3,5,5],"right_children":[2,-1,4,6,-1,8,-1,-1,-1],"split_conditions":[8E-1,3.500623E-2,1E0,1E0,3.4568403E-2,1E0,3.2932643E-2,-8.122035E-3,3.0379003E-2],"split_indices":[1,0,11,8,0,7,0,0,0],"split_type":[0,0,0,0,0,0,0,0,0],"sum_hessian":[4.2E2,2E1,4E2,3.8E2,2E1,3.6E2,2E1,3.4E2,2E1],"tree_param":{"num_deleted":"0","num_feature":"22","num_nodes":"9","size_leaf_vector":"1"}},{"base_weights":[1.2440156E-3,4.7540244E-1,-4.9784172E-2,3.3339262E-2,2.6138145E-1,-9.084524E-2,3.2922294E-2,3.539605E-3,1.5825806E-2,-1.3480407E-1,3.136442E-2,-9.167985E-3,3.0691138E-2],"categories":[],"categories_nodes":[],"categories_segments":[],"categories_sizes":[],"default_left":[0,0,0,0,0,0,0,0,0,0,0,0,0],"id":34,"left_children":[1,3,5,-1,7,9,-1,-1,-1,11,-1,-1,-1],"loss_changes":[1.020995E1,1.5050726E0,1.1139556E1,0E0,1.9826281E-1,1.1480721E1,0E0,0E0,0E0,1.2507917E1,0E0,0E0,0E0],"parents":[2147483647,0,0,1,1,2,2,4,4,5,5,9,9],"right_children":[2,4,6,-1,8,10,-1,-1,-1,12,-1,-1,-1],"split_conditions":[1.5E0,8E-1,1E0,3.3339262E-2,2.022E3,1E0,3.2922294E-2,3.539605E-3,1.5825806E-2,1E0,3.136442E-2,-9.167985E-3,3.0691138E-2],"split_indices":[1,1,11,0,0,8,0,0,0,10,0,0,0],"split_type":[0,0,0,0,0,0,0,0,0,0,0,0,0],"sum_hessian":[4.2E2,4E1,3.8E2,2E1,2E1,3.6E2,2E1,5E0,1.5E1,3.4E2,2E1,3.2E2,2E1],"tree_param":{"num_deleted":"0","num_feature":"22","num_nodes":"13","size_leaf_vector":"1"}},{"base_weights":[1.5108428E-3,3.654506E-2,-3.337739E-2,1.4547776E-1,-2.1673287E-1,2.1017723E-1,-3.3278596E-2,-3.8386577E-1,2.9870871E-2,1.4263838E-2,-3.3084374E-2,-1.58089E-2,-3.1333398E-2],"categories":[],"categories_nodes":[],"categories_segments":[],"categories_sizes":[],"default_left":[0,0,0,0,0,0,0,0,0,0,0,0,0],"id":35,"left_children":[1,3,-1,5,7,9,-1,11,-1,-1,-1,-1,-1],"loss_changes":[9.892613E0,1.109522E1,0E0,1.4885218E1,1.6693954E1,1.727816E1,0E0,1.461771E0,0E0,0E0,0E0,0E0,0E0],"parents":[2147483647,0,0,1,1,3,3,4,4,5,5,7,7],"right_children":[2,4,-1,6,8,10,-1,12,-1,-1,-1,-1,-1],"split_conditions":[1E0,6.9E0,-3.337739E-2,1E0,1E0,1E0,-3.3278596E-2,1E0,2.9870871E-2,1.4263838E-2,-3.3084374E-2,-1.58089E-2,-3.1333398E-2],"split_indices":[19,1,0,3,8,16,0,14,0,0,0,0,0],"split_type":[0,0,0,0,0,0,0,0,0,0,0,0,0],"sum_hessian":[4.2E2,4E2,2E1,2.8E2,1.2E2,2.6E2,2E1,1E2,2E1,2.4E2,2E1,8E1,2E1],"tree_param":{"num_deleted":"0","num_feature":"22","num_nodes":"13","size_leaf_vector":"1"}},{"base_weights":[1.1912353E-3,3.6181826E-2,-6.670192E-1,7.447293E-2,-3.301255E-2,-3.9579842E-2,-2.409017E-2,3.774894E-1,-6.629131E-2,2.5944024E-2,-1.6025512E-2,-6.262588E-3,3.0675335E-2],"categories":[],"categories_nodes":[],"categories_segments":[],"categories_sizes":[],"default_left":[0,0,0,0,0,0,0,0,0,0,0,0,0],"id":36,"left_children":[1,3,5,7,-1,-1,-1,9,11,-1,-1,-1,-1],"loss_changes":[9.867567E0,1.074271E1,1.03155136E-1,1.6276154E1,0E0,0E0,0E0,1.210791E1,1.0538033E1,0E0,0E0,0E0,0E0],"parents":[2147483647,0,0,1,1,2,2,3,3,7,7,8,8],"right_children":[2,4,6,8,-1,-1,-1,10,12,-1,-1,-1,-1],"split_conditions":[1E0,1E0,2.024E3,3E0,-3.301255E-2,-3.9579842E-2,-2.409017E-2,1E0,1E0,2.5944024E-2,-1.6025512E-2,-6.262588E-3,3.0675335E-2],"split_indices":[5,6,0,1,0,0,0,13,11,0,0,0,0],"split_type":[0,0,0,0,0,0,0,0,0,0,0,0,0],"sum_hessian":[4.2E2,4E2,2E1,3.8E2,2E1,1E1,1E1,1.2E2,2.6E2,1E2,2E1,2.4E2,2E1],"tree_param":{"num_deleted":"0","num_feature":"22","num_nodes":"13","size_leaf_vector":"1"}},{"base_weights":[9.835684E-4,3.437602E-2,-6.367001E-1,7.0893675E-2,-3.1489775E-2,-3.7780758E-2,-2.2995163E-2,1.9612908E-1,-1.9982809E-1,1.3359899E-2,-3.1440526E-2,-1.7946934E-2,2.8746683E-2],"categories":[],"categories_nodes":[],"categories_segments":[],"categories_sizes":[],"default_left":[0,0,0,0,0,0,0,0,0,0,0,0,0],"id":37,"left_children":[1,3,5,7,-1,-1,-1,9,11,-1,-1,-1,-1],"loss_changes":[8.986587E0,9.770497E0,9.398937E-2,1.2956596E1,0E0,0E0,0E0,1.5469804E1,1.5122373E1,0E0,0E0,0E0,0E0],"parents":[2147483647,0,0,1,1,2,2,3,3,7,7,8,8],"right_children":[2,4,6,8,-1,-1,-1,10,12,-1,-1,-1,-1],"split_conditions":[1E0,1E0,2.024E3,6.9E0,-3.1489775E-2,-3.7780758E-2,-2.2995163E-2,1E0,1E0,1.3359899E-2,-3.1440526E-2,-1.7946934E-2,2.8746683E-2],"split_indices":[5,19,0,1,0,0,0,6,8,0,0,0,0],"split_type":[0,0,0,0,0,0,0,0,0,0,0,0,0],"sum_hessian":[4.2E2,4E2,2E1,3.8E2,2E1,1E1,1E1,2.6E2,1.2E2,2.4E2,2E1,1E2,2E1],"tree_param":{"num_deleted":"0","num_feature":"22","num_nodes":"13","size_leaf_vector":"1"}},{"base_weights":[6.979669E-4,3.4282364E-2,-3.2031868E-2,7.118878E-2,-3.18469E-2,1.9188644E-1,-1.897474E-1,1.3038444E-2,-3.0387962E-2,-1.705847E-2,2.7377797E-2],"categories":[],"categories_nodes":[],"categories_segments":[],"categories_sizes":[],"default_left":[0,0,0,0,0,0,0,0,0,0,0],"id":38,"left_children":[1,3,-1,5,-1,7,9,-1,-1,-1,-1],"loss_changes":[9.089823E0,9.97905E0,0E0,1.2035771E1,0E0,1.4534771E1,1.3695726E1,0E0,0E0,0E0,0E0],"parents":[2147483647,0,0,1,1,3,3,5,5,6,6],"right_children":[2,4,-1,6,-1,8,10,-1,-1,-1,-1],"split_conditions":[1E0,1E0,-3.2031868E-2,6.9E0,-3.18469E-2,1E0,1E0,1.3038444E-2,-3.0387962E-2,-1.705847E-2,2.7377797E-2],"split_indices":[3,16,0,1,0,5,8,0,0,0,0],"split_type":[0,0,0,0,0,0,0,0,0,0,0],"sum_hessian":[4.2E2,4E2,2E1,3.8E2,2E1,2.6E2,1.2E2,2.4E2,2E1,1E2,2E1],"tree_param":{"num_deleted":"0","num_feature":"22","num_nodes":"11","size_leaf_vector":"1"}},{"base_weights":[4.946831E-4,3.25809E-2,-6.122228E-1,6.7984045E-2,-3.0564237E-2,-3.4108363E-2,-2.066461E-2,4.1629204E-1,-2.5972541E-2,7.3501775E-3,5.893438E-2,-3.48041E-3,2.7957542E-2],"categories":[],"categories_nodes":[],"categories_segments":[],"categories_sizes":[],"default_left":[0,0,0,0,0,0,0,0,0,0,0,0,0],"id":39,"left_children":[1,3,5,7,-1,-1,-1,9,11,-1,-1,-1,-1],"loss_changes":[8.296717E0,9.1823E0,1.0261536E-2,1.2479353E1,0E0,0E0,0E0,1.645638E1,7.7241263E0,0E0,0E0,0E0,0E0],"parents":[2147483647,0,0,1,1,2,2,3,3,7,7,8,8],"right_children":[2,4,6,8,-1,-1,-1,10,12,-1,-1,-1,-1],"split_conditions":[1E0,1E0,2.024E3,1.9E0,-3.0564237E-2,-3.4108363E-2,-2.066461E-2,1.7E0,1E0,7.3501775E-3,5.893438E-2,-3.48041E-3,2.7957542E-2],"split_indices":[19,6,0,1,0,0,0,1,11,0,0,0,0],"split_type":[0,0,0,0,0,0,0,0,0,0,0,0,0],"sum_hessian":[4.2E2,4E2,2E1,3.8E2,2E1,1.3E1,7E0,8E1,3E2,6E1,2E1,2.8E2,2E1],"tree_param":{"num_deleted":"0","num_feature":"22","num_nodes":"13","size_leaf_vector":"1"}},{"base_weights":[4.8285178E-4,3.2285333E-2,-3.0340804E-2,6.723247E-2,-3.0164644E-2,1.8007301E-1,-1.7672302E-1,1.2296198E-2,-2.9210998E-2,-1.6041692E-2,2.6239837E-2],"categories":[],"categories_nodes":[],"categories_segments":[],"categories_sizes":[],"default_left":[0,0,0,0,0,0,0,0,0,0,0],"id":40,"left_children":[1,3,-1,5,-1,7,9,-1,-1,-1,-1],"loss_changes":[8.150622E0,8.947428E0,0E0,1.0520018E1,0E0,1.327965E1,1.2401059E1,0E0,0E0,0E0,0E0],"parents":[2147483647,0,0,1,1,3,3,5,5,6,6],"right_children":[2,4,-1,6,-1,8,10,-1,-1,-1,-1],"split_conditions":[1E0,1E0,-3.0340804E-2,6.9E0,-3.0164644E-2,1E0,1E0,1.2296198E-2,-2.9210998E-2,-1.6041692E-2,2.6239837E-2],"split_indices":[3,16,0,1,0,19,8,0,0,0,0],"split_type":[0,0,0,0,0,0,0,0,0,0,0],"sum_hessian":[4.2E2,4E2,2E1,3.8E2,2E1,2.6E2,1.2E2,2.4E2,2E1,1E2,2E1],"tree_param":{"num_deleted":"0","num_feature":"22","num_nodes":"11","size_leaf_vector":"1"}},{"base_weights":[2.990281E-4,3.141524E-2,-2.9694332E-2,3.8415137E-1,-5.769081E-2,1.2767921E-1,5.5542447E-2,-9.963257E-2,5.4622155E-1,1.8438453E-2,-1.7454995E-2,-7.3668244E-3,2.7171785E-2,2.0790594E-2,4.0147197E-2],"categories":[],"categories_nodes":[],"categories_segments":[],"categories_sizes":[],"default_left":[0,0,0,0,0,0,0,0,0,0,0,0,0,0,0],"id":41,"left_children":[1,3,-1,5,7,9,-1,11,13,-1,-1,-1,-1,-1,-1],"loss_changes":[7.8024445E0,1.2625961E1,0E0,1.495476E1,8.185078E0,7.14048E0,0E0,9.313807E0,3.6918688E-1,0E0,0E0,0E0,0E0,0E0,0E0],"parents":[2147483647,0,0,1,1,3,3,4,4,5,5,7,7,8,8],"right_children":[2,4,-1,6,8,10,-1,12,14,-1,-1,-1,-1,-1,-1],"split_conditions":[1E0,1.9E0,-2.9694332E-2,1.7E0,1E0,1.5E0,5.5542447E-2,1E0,2.025E3,1.8438453E-2,-1.7454995E-2,-7.3668244E-3,2.7171785E-2,2.0790594E-2,4.0147197E-2],"split_indices":[6,1,0,1,7,1,0,10,0,0,0,0,0,0,0],"split_type":[0,0,0,0,0,0,0,0,0,0,0,0,0,0,0],"sum_hessian":[4.2E2,4E2,2E1,8E1,3.2E2,6E1,2E1,3E2,2E1,4E1,2E1,2.8E2,2E1,1.5E1,5E0],"tree_param":{"num_deleted":"0","num_feature":"22","num_nodes":"15","size_leaf_vector":"1"}},{"base_weights":[5.3958985E-4,3.0950949E-2,-5.801982E-1,6.404283E-2,-2.8545206E-2,-3.474804E-2,-2.0634523E-2,1.6789432E-1,-1.604967E-1,1.15640955E-2,-2.8377438E-2,-1.4882855E-2,2.5341112E-2],"categories":[],"categories_nodes":[],"categories_segments":[],"categories_sizes":[],"default_left":[0,0,0,0,0,0,0,0,0,0,0,0,0],"id":42,"left_children":[1,3,5,7,-1,-1,-1,9,11,-1,-1,-1,-1],"loss_changes":[7.45325E0,8.023084E0,1.16892815E-1,8.911395E0,0E0,0E0,0E0,1.2298552E1,1.1225958E1,0E0,0E0,0E0,0E0],"parents":[2147483647,0,0,1,1,2,2,3,3,7,7,8,8],"right_children":[2,4,6,8,-1,-1,-1,10,12,-1,-1,-1,-1],"split_conditions":[1E0,1E0,2.024E3,6.9E0,-2.8545206E-2,-3.474804E-2,-2.0634523E-2,1E0,1E0,1.15640955E-2,-2.8377438E-2,-1.4882855E-2,2.5341112E-2],"split_indices":[5,3,0,1,0,0,0,16,8,0,0,0,0],"split_type":[0,0,0,0,0,0,0,0,0,0,0,0,0],"sum_hessian":[4.2E2,4E2,2E1,3.8E2,2E1,1E1,1E1,2.6E2,1.2E2,2.4E2,2E1,1E2,2E1],"tree_param":{"num_deleted":"0","num_feature":"22","num_nodes":"13","size_leaf_vector":"1"}},{"base_weights":[2.9818114E-4,3.05101E-2,-2.883099E-2,3.542204E-1,-5.126885E-2,1.09936886E-1,5.234691E-2,-9.07324E-2,2.584084E-2,1.6974917E-2,-1.717448E-2,-1.6600572E-2,3.5532955E-3],"categories":[],"categories_nodes":[],"categories_segments":[],"categories_sizes":[],"default_left":[0,0,0,0,0,0,0,0,0,0,0,0,0],"id":43,"left_children":[1,3,-1,5,7,9,-1,11,-1,-1,-1,-1,-1],"loss_changes":[7.355538E0,1.0633708E1,0E0,1.3591682E1,7.2432876E0,6.466058E0,0E0,1.1774197E1,0E0,0E0,0E0,0E0,0E0],"parents":[2147483647,0,0,1,1,3,3,4,4,5,5,7,7],"right_children":[2,4,-1,6,8,10,-1,12,-1,-1,-1,-1,-1],"split_conditions":[1E0,1.9E0,-2.883099E-2,1.7E0,1E0,1.5E0,5.234691E-2,5.9E0,2.584084E-2,1.6974917E-2,-1.717448E-2,-1.6600572E-2,3.5532955E-3],"split_indices":[6,1,0,1,11,1,0,1,0,0,0,0,0],"split_type":[0,0,0,0,0,0,0,0,0,0,0,0,0],"sum_hessian":[4.2E2,4E2,2E1,8E1,3.2E2,6E1,2E1,3E2,2E1,4E1,2E1,1.2E2,1.8E2],"tree_param":{"num_deleted":"0","num_feature":"22","num_nodes":"13","size_leaf_vector":"1"}},{"base_weights":[3.6904527E-4,2.9146543E-2,-5.491617E-1,3.3715317E-1,-4.8665553E-2,-3.0668063E-2,-3.681673E-1,1.044368E-1,4.9854197E-2,-8.7300174E-2,5.0741476E-1,-9.344791E-3,-2.5135744E-2,1.6146874E-2,-1.6356647E-2,-6.5558217E-3,2.5158009E-2,1.9107407E-2,3.7844498E-2],"categories":[],"categories_nodes":[],"categories_segments":[],"categories_sizes":[],"default_left":[0,0,0,0,0,0,0,0,0,0,0,0,0,0,0,0,0,0,0],"id":44,"left_children":[1,3,5,7,9,-1,11,13,-1,15,17,-1,-1,-1,-1,-1,-1,-1,-1],"loss_changes":[6.673751E0,9.62703E0,1.8194675E-2,1.2335577E1,6.940646E0,0E0,1.011616E-1,5.8578386E0,0E0,7.8533726E0,3.6702538E-1,0E0,0E0,0E0,0E0,0E0,0E0,0E0,0E0],"parents":[2147483647,0,0,1,1,2,2,3,3,4,4,6,6,7,7,9,9,10,10],"right_children":[2,4,6,8,10,-1,12,14,-1,16,18,-1,-1,-1,-1,-1,-1,-1,-1],"split_conditions":[1E0,1.9E0,2.024E3,1.7E0,1E0,-3.0668063E-2,2.025E3,1.5E0,4.9854197E-2,1E0,2.025E3,-9.344791E-3,-2.5135744E-2,1.6146874E-2,-1.6356647E-2,-6.5558217E-3,2.5158009E-2,1.9107407E-2,3.7844498E-2],"split_indices":[6,1,0,1,7,0,0,1,0,10,0,0,0,0,0,0,0,0,0],"split_type":[0,0,0,0,0,0,0,0,0,0,0,0,0,0,0,0,0,0,0],"sum_hessian":[4.2E2,4E2,2E1,8E1,3.2E2,1.3E1,7E0,6E1,2E1,3E2,2E1,4E0,3E0,4E1,2E1,2.8E2,2E1,1.5E1,5E0],"tree_param":{"num_deleted":"0","num_feature":"22","num_nodes":"19","size_leaf_vector":"1"}},{"base_weights":[4.932293E-4,2.8710388E-2,-5.383436E-1,5.9527755E-2,-5.3177184E-1,-3.0288292E-2,-1.7653095E-2,1.5616247E-1,-1.4940768E-1,-3.211602E-2,-1.8644026E-2,1.07426E-2,-2.6240295E-2,-1.399744E-2,2.427738E-2],"categories":[],"categories_nodes":[],"categories_segments":[],"categories_sizes":[],"default_left":[0,0,0,0,0,0,0,0,0,0,0,0,0,0,0],"id":45,"left_children":[1,3,5,7,9,-1,-1,11,13,-1,-1,-1,-1,-1,-1],"loss_changes":[6.4165273E0,6.9579625E0,4.846096E-2,7.7158804E0,1.2936068E-1,0E0,0E0,1.0543804E1,1.0165349E1,0E0,0E0,0E0,0E0,0E0,0E0],"parents":[2147483647,0,0,1,1,2,2,3,3,4,4,7,7,8,8],"right_children":[2,4,6,8,10,-1,-1,12,14,-1,-1,-1,-1,-1,-1],"split_conditions":[1E0,1E0,2.024E3,6.9E0,2.024E3,-3.0288292E-2,-1.7653095E-2,1E0,1E0,-3.211602E-2,-1.8644026E-2,1.07426E-2,-2.6240295E-2,-1.399744E-2,2.427738E-2],"split_indices":[19,5,0,1,0,0,0,6,8,0,0,0,0,0,0],"split_type":[0,0,0,0,0,0,0,0,0,0,0,0,0,0,0],"sum_hessian":[4.2E2,4E2,2E1,3.8E2,2E1,1.3E1,7E0,2.6E2,1.2E2,1E1,1E1,2.4E2,2E1,1E2,2E1],"tree_param":{"num_deleted":"0","num_feature":"22","num_nodes":"15","size_leaf_vector":"1"}},{"base_weights":[2.2172737E-4,2.8087659E-2,-2.6594771E-2,5.8703016E-2,-2.6434993E-2,9.183863E-2,-5.1370937E-1,1.0439394E-2,-7.092616E-3,-2.8882047E-2,-1.6880771E-2],"categories":[],"categories_nodes":[],"categories_segments":[],"categories_sizes":[],"default_left":[0,0,0,0,0,0,0,0,0,0,0],"id":46,"left_children":[1,3,-1,5,-1,7,9,-1,-1,-1,-1],"loss_changes":[6.2575026E0,6.866582E0,0E0,7.273696E0,0E0,9.895739E0,4.1397095E-2,0E0,0E0,0E0,0E0],"parents":[2147483647,0,0,1,1,3,3,5,5,6,6],"right_children":[2,4,-1,6,-1,8,10,-1,-1,-1,-1],"split_conditions":[1E0,1E0,-2.6594771E-2,1E0,-2.6434993E-2,6.9E0,2.024E3,1.0439394E-2,-7.092616E-3,-2.8882047E-2,-1.6880771E-2],"split_indices":[3,16,0,19,0,1,0,0,0,0,0],"split_type":[0,0,0,0,0,0,0,0,0,0,0],"sum_hessian":[4.2E2,4E2,2E1,3.8E2,2E1,3.6E2,2E1,2.4E2,1.2E2,1.3E1,7E0],"tree_param":{"num_deleted":"0","num_feature":"22","num_nodes":"11","size_leaf_vector":"1"}},{"base_weights":[-1.6085043E-5,2.7086345E-2,-5.175427E-1,5.6605067E-2,-5.0975746E-1,-3.1130714E-2,-1.8271089E-2,8.9208975E-2,-2.5328353E-2,-2.8510574E-2,-3.4024322E-1,1.0065864E-2,-6.740918E-3,-8.338963E-3,-2.3600617E-2],"categories":[],"categories_nodes":[],"categories_segments":[],"categories_sizes":[],"default_left":[0,0,0,0,0,0,0,0,0,0,0,0,0,0,0],"id":47,"left_children":[1,3,5,7,9,-1,-1,11,-1,-1,13,-1,-1,-1,-1],"loss_changes":[5.919061E0,6.3834786E0,1.0813856E-1,7.0409646E0,2.1193981E-2,0E0,0E0,9.093773E0,0E0,0E0,1.0413569E-1,0E0,0E0,0E0,0E0],"parents":[2147483647,0,0,1,1,2,2,3,3,4,4,7,7,10,10],"right_children":[2,4,6,8,10,-1,-1,12,-1,-1,14,-1,-1,-1,-1],"split_conditions":[1E0,1E0,2.024E3,1E0,2.024E3,-3.1130714E-2,-1.8271089E-2,6.9E0,-2.5328353E-2,-2.8510574E-2,2.025E3,1.0065864E-2,-6.740918E-3,-8.338963E-3,-2.3600617E-2],"split_indices":[5,6,0,3,0,0,0,1,0,0,0,0,0,0,0],"split_type":[0,0,0,0,0,0,0,0,0,0,0,0,0,0,0],"sum_hessian":[4.2E2,4E2,2E1,3.8E2,2E1,1E1,1E1,3.6E2,2E1,1.3E1,7E0,2.4E2,1.2E2,4E0,3E0],"tree_param":{"num_deleted":"0","num_feature":"22","num_nodes":"15","size_leaf_vector":"1"}},{"base_weights":[-3.2845282E-4,2.6526278E-2,-2.5655514E-2,5.5466194E-2,-4.9978963E-1,8.7277E-2,-4.9401805E-1,-2.800844E-2,-1.658262E-2,9.753342E-3,-6.406656E-3,-2.9715685E-2,-1.7440585E-2],"categories":[],"categories_nodes":[],"categories_segments":[],"categories_sizes":[],"default_left":[0,0,0,0,0,0,0,0,0,0,0,0,0],"id":48,"left_children":[1,3,-1,5,7,9,11,-1,-1,-1,-1,-1,-1],"loss_changes":[5.8110414E0,6.1355686E0,0E0,6.7028213E0,2.741003E-2,8.407061E0,9.853077E-2,0E0,0E0,0E0,0E0,0E0,0E0],"parents":[2147483647,0,0,1,1,3,3,4,4,5,5,6,6],"right_children":[2,4,-1,6,8,10,12,-1,-1,-1,-1,-1,-1],"split_conditions":[1E0,1E0,-2.5655514E-2,1E0,2.024E3,6.9E0,2.024E3,-2.800844E-2,-1.658262E-2,9.753342E-3,-6.406656E-3,-2.9715685E-2,-1.7440585E-2],"split_indices":[16,19,0,5,0,1,0,0,0,0,0,0,0],"split_type":[0,0,0,0,0,0,0,0,0,0,0,0,0],"sum_hessian":[4.2E2,4E2,2E1,3.8E2,2E1,3.6E2,2E1,1.3E1,7E0,2.4E2,1.2E2,1E1,1E1],"tree_param":{"num_deleted":"0","num_feature":"22","num_nodes":"13","size_leaf_vector":"1"}},{"base_weights":[-5.829031E-4,2.5385974E-2,-4.9643704E-1,2.8041348E-1,-3.904584E-2,-2.7639702E-2,-3.3575767E-1,5.888256E-2,4.5527752E-2,-7.524743E-2,2.4085145E-2,-8.395537E-3,-2.3081345E-2,1.3359169E-2,-1.7530194E-2,-5.746781E-3,2.2970077E-2],"categories":[],"categories_nodes":[],"categories_segments":[],"categories_sizes":[],"default_left":[0,0,0,0,0,0,0,0,0,0,0,0,0,0,0,0,0],"id":49,"left_children":[1,3,5,7,9,-1,11,13,-1,15,-1,-1,-1,-1,-1,-1,-1],"loss_changes":[5.433725E0,6.6001344E0,4.558563E-3,1.1253646E1,6.0877166E0,0E0,9.150201E-2,5.296753E0,0E0,6.439795E0,0E0,0E0,0E0,0E0,0E0,0E0,0E0],"parents":[2147483647,0,0,1,1,2,2,3,3,4,4,6,6,7,7,9,9],"right_children":[2,4,6,8,10,-1,12,14,-1,16,-1,-1,-1,-1,-1,-1,-1],"split_conditions":[1E0,1.9E0,2.024E3,1.7E0,1E0,-2.7639702E-2,2.025E3,1.5E0,4.5527752E-2,1E0,2.4085145E-2,-8.395537E-3,-2.3081345E-2,1.3359169E-2,-1.7530194E-2,-5.746781E-3,2.2970077E-2],"split_indices":[6,1,0,1,8,0,0,1,0,11,0,0,0,0,0,0,0],"split_type":[0,0,0,0,0,0,0,0,0,0,0,0,0,0,0,0,0],"sum_hessian":[4.2E2,4E2,2E1,8E1,3.2E2,1.3E1,7E0,6E1,2E1,3E2,2E1,4E0,3E0,4E1,2E1,2.8E2,2E1],"tree_param":{"num_deleted":"0","num_feature":"22","num_nodes":"17","size_leaf_vector":"1"}},{"base_weights":[-4.978088E-4,2.4942383E-2,-2.431303E-2,5.288495E-2,-2.4160169E-2,8.355122E-2,-4.7680113E-1,5.883435E-3,-2.3721514E-2,-1.6766353E-2,-2.7748138E-2],"categories":[],"categories_nodes":[],"categories_segments":[],"categories_sizes":[],"default_left":[0,0,0,0,0,0,0,0,0,0,0],"id":50,"left_children":[1,3,-1,5,-1,7,9,-1,-1,-1,-1],"loss_changes":[5.214804E0,5.719312E0,0E0,6.228609E0,0E0,6.928154E0,4.6120644E-2,0E0,0E0,0E0,0E0],"parents":[2147483647,0,0,1,1,3,3,5,5,6,6],"right_children":[2,4,-1,6,-1,8,10,-1,-1,-1,-1],"split_conditions":[1E0,1E0,-2.431303E-2,1E0,-2.4160169E-2,1E0,2.023E3,5.883435E-3,-2.3721514E-2,-1.6766353E-2,-2.7748138E-2],"split_indices":[3,16,0,14,0,6,0,0,0,0,0],"split_type":[0,0,0,0,0,0,0,0,0,0,0],"sum_hessian":[4.2E2,4E2,2E1,3.8E2,2E1,3.6E2,2E1,3.4E2,2E1,9E0,1.1E1],"tree_param":{"num_deleted":"0","num_feature":"22","num_nodes":"11","size_leaf_vector":"1"}},{"base_weights":[-7.361701E-4,2.4209974E-2,-4.7705367E-1,5.1479664E-2,-4.7169292E-1,-2.6714394E-2,-1.586311E-2,8.127137E-2,-2.315527E-2,-2.8371189E-2,-1.6654048E-2,9.1521805E-3,-6.105183E-3],"categories":[],"categories_nodes":[],"categories_segments":[],"categories_sizes":[],"default_left":[0,0,0,0,0,0,0,0,0,0,0,0,0],"id":51,"left_children":[1,3,5,7,9,-1,-1,11,-1,-1,-1,-1,-1],"loss_changes":[5.0139923E0,5.4470525E0,2.2546291E-2,5.8785076E0,8.9660645E-2,0E0,0E0,7.494303E0,0E0,0E0,0E0,0E0,0E0],"parents":[2147483647,0,0,1,1,2,2,3,3,4,4,7,7],"right_children":[2,4,6,8,10,-1,-1,12,-1,-1,-1,-1,-1],"split_conditions":[1E0,1E0,2.024E3,1E0,2.024E3,-2.6714394E-2,-1.586311E-2,6.9E0,-2.315527E-2,-2.8371189E-2,-1.6654048E-2,9.1521805E-3,-6.105183E-3],"split_indices":[19,5,0,3,0,0,0,1,0,0,0,0,0],"split_type":[0,0,0,0,0,0,0,0,0,0,0,0,0],"sum_hessian":[4.2E2,4E2,2E1,3.8E2,2E1,1.3E1,7E0,3.6E2,2E1,1E1,1E1,2.4E2,1.2E2],"tree_param":{"num_deleted":"0","num_feature":"22","num_nodes":"13","size_leaf_vector":"1"}},{"base_weights":[-9.5521775E-4,2.355353E-2,-2.3445506E-2,5.017484E-2,-4.605547E-1,7.943605E-2,-4.552285E-1,-2.5679996E-2,-3.101562E-1,8.862725E-3,-5.802449E-3,-2.5474085E-2,-1.5169098E-2,-7.4769417E-3,-2.1669444E-2],"categories":[],"categories_nodes":[],"categories_segments":[],"categories_sizes":[],"default_left":[0,0,0,0,0,0,0,0,0,0,0,0,0,0,0],"id":52,"left_children":[1,3,-1,5,7,9,11,-1,13,-1,-1,-1,-1,-1,-1],"loss_changes":[4.839488E0,5.1910343E0,0E0,5.6706605E0,8.240223E-3,6.923629E0,1.843357E-2,0E0,9.353799E-2,0E0,0E0,0E0,0E0,0E0,0E0],"parents":[2147483647,0,0,1,1,3,3,4,4,5,5,6,6,8,8],"right_children":[2,4,-1,6,8,10,12,-1,14,-1,-1,-1,-1,-1,-1],"split_conditions":[1E0,1E0,-2.3445506E-2,1E0,2.024E3,6.9E0,2.024E3,-2.5679996E-2,2.025E3,8.862725E-3,-5.802449E-3,-2.5474085E-2,-1.5169098E-2,-7.4769417E-3,-2.1669444E-2],"split_indices":[16,6,0,19,0,1,0,0,0,0,0,0,0,0,0],"split_type":[0,0,0,0,0,0,0,0,0,0,0,0,0,0,0],"sum_hessian":[4.2E2,4E2,2E1,3.8E2,2E1,3.6E2,2E1,1.3E1,7E0,2.4E2,1.2E2,1.3E1,7E0,4E0,3E0],"tree_param":{"num_deleted":"0","num_feature":"22","num_nodes":"15","size_leaf_vector":"1"}},{"base_weights":[-1.1826453E-3,-2.5567183E-2,2.3225112E-2,3.4629535E-2,-2.638089E-1,-5.7442304E-2,3.0814415E-1,-3.915785E-1,-1.2960495E-1,1.2373062E-3,-2.2948252E-2,2.187814E-2,-4.122988E-3,-2.218701E-2,-1.6038513E-2,-1.0704178E-2,-2.7091631E-3],"categories":[],"categories_nodes":[],"categories_segments":[],"categories_sizes":[],"default_left":[0,0,0,0,0,0,0,0,0,0,0,0,0,0,0,0,0],"id":53,"left_children":[1,3,-1,5,7,9,11,13,15,-1,-1,-1,-1,-1,-1,-1,-1],"loss_changes":[4.7925463E0,5.760025E0,0E0,8.10144E0,1.338172E0,7.964484E0,4.1307473E0,9.093285E-3,2.4963254E-1,0E0,0E0,0E0,0E0,0E0,0E0,0E0,0E0],"parents":[2147483647,0,0,1,1,3,3,4,4,5,5,6,6,7,7,8,8],"right_children":[2,4,-1,6,8,10,12,14,16,-1,-1,-1,-1,-1,-1,-1,-1],"split_conditions":[1E0,8.9E0,2.3225112E-2,5.9E0,1.04E1,4.4E0,6.9E0,9E0,2.023E3,1.2373062E-3,-2.2948252E-2,2.187814E-2,-4.122988E-3,-2.218701E-2,-1.6038513E-2,-1.0704178E-2,-2.7091631E-3],"split_indices":[8,1,0,1,1,1,1,1,0,0,0,0,0,0,0,0,0],"split_type":[0,0,0,0,0,0,0,0,0,0,0,0,0,0,0,0,0],"sum_hessian":[4.2E2,4E2,2E1,3.2E2,8E1,2.4E2,8E1,4E1,4E1,2E2,4E1,6E1,2E1,2E1,2E1,1.8E1,2.2E1],"tree_param":{"num_deleted":"0","num_feature":"22","num_nodes":"17","size_leaf_vector":"1"}},{"base_weights":[-1.2004373E-3,2.2822732E-2,-4.598714E-1,4.8345286E-2,-4.4131616E-1,-2.7540678E-2,-1.6356139E-2,7.63622E-2,-4.3558088E-1,-2.454516E-2,-2.9937434E-1,8.356358E-3,-5.2524335E-3,-2.4348805E-2,-1.4559584E-2,-7.2273575E-3,-2.0903239E-2],"categories":[],"categories_nodes":[],"categories_segments":[],"categories_sizes":[],"default_left":[0,0,0,0,0,0,0,0,0,0,0,0,0,0,0,0,0],"id":54,"left_children":[1,3,5,7,9,-1,-1,11,13,-1,15,-1,-1,-1,-1,-1,-1],"loss_changes":[4.6493807E0,4.771586E0,7.333803E-2,5.1989045E0,8.4400177E-4,0E0,0E0,5.961692E0,1.4035702E-2,0E0,8.6581945E-2,0E0,0E0,0E0,0E0,0E0,0E0],"parents":[2147483647,0,0,1,1,2,2,3,3,4,4,7,7,8,8,10,10],"right_children":[2,4,6,8,10,-1,-1,12,14,-1,16,-1,-1,-1,-1,-1,-1],"split_conditions":[1E0,1E0,2.024E3,1E0,2.024E3,-2.7540678E-2,-1.6356139E-2,6.9E0,2.024E3,-2.454516E-2,2.025E3,8.356358E-3,-5.2524335E-3,-2.4348805E-2,-1.4559584E-2,-7.2273575E-3,-2.0903239E-2],"split_indices":[5,6,0,19,0,0,0,1,0,0,0,0,0,0,0,0,0],"split_type":[0,0,0,0,0,0,0,0,0,0,0,0,0,0,0,0,0],"sum_hessian":[4.2E2,4E2,2E1,3.8E2,2E1,1E1,1E1,3.6E2,2E1,1.3E1,7E0,2.4E2,1.2E2,1.3E1,7E0,4E0,3E0],"tree_param":{"num_deleted":"0","num_feature":"22","num_nodes":"17","size_leaf_vector":"1"}},{"base_weights":[-1.4548418E-3,-2.495655E-2,2.2369258E-2,3.0915776E-2,-2.460684E-1,-5.563961E-2,2.8806308E-1,-3.678076E-1,-1.1832756E-1,1.2001848E-3,-2.223645E-2,2.0391194E-2,-3.676538E-3,-2.088037E-2,-1.5024656E-2,-9.948341E-3,-2.3283924E-3],"categories":[],"categories_nodes":[],"categories_segments":[],"categories_sizes":[],"default_left":[0,0,0,0,0,0,0,0,0,0,0,0,0,0,0,0,0],"id":55,"left_children":[1,3,-1,5,7,9,11,13,15,-1,-1,-1,-1,-1,-1,-1,-1],"loss_changes":[4.4520864E0,4.961575E0,0E0,7.1606803E0,1.2161145E0,7.4788713E0,3.537674E0,1.1953831E-2,2.2798723E-1,0E0,0E0,0E0,0E0,0E0,0E0,0E0,0E0],"parents":[2147483647,0,0,1,1,3,3,4,4,5,5,6,6,7,7,8,8],"right_children":[2,4,-1,6,8,10,12,14,16,-1,-1,-1,-1,-1,-1,-1,-1],"split_conditions":[1E0,8.9E0,2.2369258E-2,5.9E0,1.04E1,4.4E0,6.9E0,9E0,2.023E3,1.2001848E-3,-2.223645E-2,2.0391194E-2,-3.676538E-3,-2.088037E-2,-1.5024656E-2,-9.948341E-3,-2.3283924E-3],"split_indices":[8,1,0,1,1,1,1,1,0,0,0,0,0,0,0,0,0],"split_type":[0,0,0,0,0,0,0,0,0,0,0,0,0,0,0,0,0],"sum_hessian":[4.2E2,4E2,2E1,3.2E2,8E1,2.4E2,8E1,4E1,4E1,2E2,4E1,6E1,2E1,2E1,2E1,1.8E1,2.2E1],"tree_param":{"num_deleted":"0","num_feature":"22","num_nodes":"17","size_leaf_vector":"1"}},{"base_weights":[-1.4536956E-3,2.1522019E-2,-4.4011122E-1,4.596133E-2,-2.1145089E-2,-2.6343385E-2,-1.5667234E-2,7.275351E-2,-4.167977E-1,5.127099E-3,-2.0720944E-2,-2.327405E-2,-1.3975111E-2],"categories":[],"categories_nodes":[],"categories_segments":[],"categories_sizes":[],"default_left":[0,0,0,0,0,0,0,0,0,0,0,0,0],"id":56,"left_children":[1,3,5,7,-1,-1,-1,9,11,-1,-1,-1,-1],"loss_changes":[4.252507E0,4.3748636E0,6.586313E-2,4.754085E0,0E0,0E0,0E0,5.2813697E0,1.026082E-2,0E0,0E0,0E0,0E0],"parents":[2147483647,0,0,1,1,2,2,3,3,7,7,8,8],"right_children":[2,4,6,8,-1,-1,-1,10,12,-1,-1,-1,-1],"split_conditions":[1E0,1E0,2.024E3,1E0,-2.1145089E-2,-2.6343385E-2,-1.5667234E-2,1E0,2.024E3,5.127099E-3,-2.0720944E-2,-2.327405E-2,-1.3975111E-2],"split_indices":[5,6,0,19,0,0,0,3,0,0,0,0,0],"split_type":[0,0,0,0,0,0,0,0,0,0,0,0,0],"sum_hessian":[4.2E2,4E2,2E1,3.8E2,2E1,1E1,1E1,3.6E2,2E1,3.4E2,2E1,1.3E1,7E0],"tree_param":{"num_deleted":"0","num_feature":"22","num_nodes":"13","size_leaf_vector":"1"}},{"base_weights":[-1.656554E-3,-2.3796935E-2,2.1059908E-2,3.068767E-2,-2.394236E-1,-4.946993E-2,2.688024E-1,-3.5529497E-1,-1.1771265E-1,1.2712188E-3,-2.0771405E-2,1.9136189E-2,-3.745611E-3,-2.0130215E-2,-1.4553343E-2,-9.719967E-3,-2.462242E-3],"categories":[],"categories_nodes":[],"categories_segments":[],"categories_sizes":[],"default_left":[0,0,0,0,0,0,0,0,0,0,0,0,0,0,0,0,0],"id":57,"left_children":[1,3,-1,5,7,9,11,13,15,-1,-1,-1,-1,-1,-1,-1,-1],"loss_changes":[3.9514942E0,4.7184286E0,0E0,6.1401305E0,1.1005058E0,6.6159344E0,3.2003422E0,7.397175E-3,2.057001E-1,0E0,0E0,0E0,0E0,0E0,0E0,0E0,0E0],"parents":[2147483647,0,0,1,1,3,3,4,4,5,5,6,6,7,7,8,8],"right_children":[2,4,-1,6,8,10,12,14,16,-1,-1,-1,-1,-1,-1,-1,-1],"split_conditions":[1E0,8.9E0,2.1059908E-2,5.9E0,1.04E1,4.4E0,6.9E0,9E0,2.023E3,1.2712188E-3,-2.0771405E-2,1.9136189E-2,-3.745611E-3,-2.0130215E-2,-1.4553343E-2,-9.719967E-3,-2.462242E-3],"split_indices":[8,1,0,1,1,1,1,1,0,0,0,0,0,0,0,0,0],"split_type":[0,0,0,0,0,0,0,0,0,0,0,0,0,0,0,0,0],"sum_hessian":[4.2E2,4E2,2E1,3.2E2,8E1,2.4E2,8E1,4E1,4E1,2E2,4E1,6E1,2E1,2E1,2E1,1.8E1,2.2E1],"tree_param":{"num_deleted":"0","num_feature":"22","num_nodes":"17","size_leaf_vector":"1"}},{"base_weights":[-1.6448057E-3,2.0337136E-2,-4.213169E-1,4.3671004E-2,-4.039743E-1,-2.5203744E-2,-1.5012871E-2,6.929762E-2,-3.989423E-1,-2.2538573E-2,-2.715825E-1,1.0838636E-2,-1.2553197E-3,-2.225249E-2,-1.3419318E-2,-6.191317E-3,-1.9419106E-2],"categories":[],"categories_nodes":[],"categories_segments":[],"categories_sizes":[],"default_left":[0,0,0,0,0,0,0,0,0,0,0,0,0,0,0,0,0],"id":58,"left_children":[1,3,5,7,9,-1,-1,11,13,-1,15,-1,-1,-1,-1,-1,-1],"loss_changes":[3.892381E0,3.9878733E0,5.9039116E-2,4.349207E0,7.684946E-3,0E0,0E0,5.0313716E0,6.9663525E-3,0E0,8.997095E-2,0E0,0E0,0E0,0E0,0E0,0E0],"parents":[2147483647,0,0,1,1,2,2,3,3,4,4,7,7,8,8,10,10],"right_children":[2,4,6,8,10,-1,-1,12,14,-1,16,-1,-1,-1,-1,-1,-1],"split_conditions":[1E0,1E0,2.024E3,1E0,2.024E3,-2.5203744E-2,-1.5012871E-2,4.4E0,2.024E3,-2.2538573E-2,2.025E3,1.0838636E-2,-1.2553197E-3,-2.225249E-2,-1.3419318E-2,-6.191317E-3,-1.9419106E-2],"split_indices":[5,6,0,19,0,0,0,1,0,0,0,0,0,0,0,0,0],"split_type":[0,0,0,0,0,0,0,0,0,0,0,0,0,0,0,0,0],"sum_hessian":[4.2E2,4E2,2E1,3.8E2,2E1,1E1,1E1,3.6E2,2E1,1.3E1,7E0,1.4E2,2.2E2,1.3E1,7E0,4E0,3E0],"tree_param":{"num_deleted":"0","num_feature":"22","num_nodes":"17","size_leaf_vector":"1"}},{"base_weights":[-1.8344489E-3,-2.2995947E-2,2.0116838E-2,2.8500656E-2,-2.2679117E-1,-4.834625E-2,2.5679207E-1,-3.3715144E-1,-1.1089941E-1,1.119413E-3,-1.9696934E-2,1.82568E-2,-3.5074763E-3,-1.9111855E-2,-1.3800548E-2,-9.200084E-3,-2.2844437E-3],"categories":[],"categories_nodes":[],"categories_segments":[],"categories_sizes":[],"default_left":[0,0,0,0,0,0,0,0,0,0,0,0,0,0,0,0,0],"id":59,"left_children":[1,3,-1,5,7,9,11,13,15,-1,-1,-1,-1,-1,-1,-1,-1],"loss_changes":[3.61001E0,4.214863E0,0E0,5.643874E0,9.985876E-1,5.90014E0,2.8948083E0,7.517338E-3,1.870417E-1,0E0,0E0,0E0,0E0,0E0,0E0,0E0,0E0],"parents":[2147483647,0,0,1,1,3,3,4,4,5,5,6,6,7,7,8,8],"right_children":[2,4,-1,6,8,10,12,14,16,-1,-1,-1,-1,-1,-1,-1,-1],"split_conditions":[1E0,8.9E0,2.0116838E-2,5.9E0,1.04E1,4.4E0,6.9E0,9E0,2.023E3,1.119413E-3,-1.9696934E-2,1.82568E-2,-3.5074763E-3,-1.9111855E-2,-1.3800548E-2,-9.200084E-3,-2.2844437E-3],"split_indices":[8,1,0,1,1,1,1,1,0,0,0,0,0,0,0,0,0],"split_type":[0,0,0,0,0,0,0,0,0,0,0,0,0,0,0,0,0],"sum_hessian":[4.2E2,4E2,2E1,3.2E2,8E1,2.4E2,8E1,4E1,4E1,2E2,4E1,6E1,2E1,2E1,2E1,1.8E1,2.2E1],"tree_param":{"num_deleted":"0","num_feature":"22","num_nodes":"17","size_leaf_vector":"1"}},{"base_weights":[-1.809487E-3,1.9217163E-2,-4.0323222E-1,4.1564062E-2,-3.871345E-1,-2.4109E-2,-1.4381349E-2,6.622979E-2,-3.8443083E-1,-2.1544112E-2,-2.621842E-1,2.0859282E-2,-2.557093E-4,-2.2858705E-2,-6.3188486E-3,-5.988442E-3,-1.8732866E-2],"categories":[],"categories_nodes":[],"categories_segments":[],"categories_sizes":[],"default_left":[0,0,0,0,0,0,0,0,0,0,0,0,0,0,0,0,0],"id":60,"left_children":[1,3,5,7,9,-1,-1,11,13,-1,15,-1,-1,-1,-1,-1,-1],"loss_changes":[3.5612316E0,3.657451E0,5.2974224E-2,4.028809E0,1.8217564E-3,0E0,0E0,9.041063E0,3.3642912E-1,0E0,8.327097E-2,0E0,0E0,0E0,0E0,0E0,0E0],"parents":[2147483647,0,0,1,1,2,2,3,3,4,4,7,7,8,8,10,10],"right_children":[2,4,6,8,10,-1,-1,12,14,-1,16,-1,-1,-1,-1,-1,-1],"split_conditions":[1E0,1E0,2.024E3,1E0,2.024E3,-2.4109E-2,-1.4381349E-2,1.9E0,2.025E3,-2.1544112E-2,2.025E3,2.0859282E-2,-2.557093E-4,-2.2858705E-2,-6.3188486E-3,-5.988442E-3,-1.8732866E-2],"split_indices":[5,6,0,13,0,0,0,1,0,0,0,0,0,0,0,0,0],"split_type":[0,0,0,0,0,0,0,0,0,0,0,0,0,0,0,0,0],"sum_hessian":[4.2E2,4E2,2E1,3.8E2,2E1,1E1,1E1,3.6E2,2E1,1.3E1,7E0,6E1,3E2,1.5E1,5E0,4E0,3E0],"tree_param":{"num_deleted":"0","num_feature":"22","num_nodes":"17","size_leaf_vector":"1"}},{"base_weights":[-1.9406776E-3,-2.2317199E-2,3.8724628E-1,-4.4622164E-2,1.9171065E-2,3.0527943E-1,2.4114124E-2,-6.8934634E-2,1.8772284E-2,1.7893717E-2,8.775357E-3,1.8530494E-2,-4.79006E-3],"categories":[],"categories_nodes":[],"categories_segments":[],"categories_sizes":[],"default_left":[0,0,0,0,0,0,0,0,0,0,0,0,0],"id":61,"left_children":[1,3,5,7,-1,9,-1,11,-1,-1,-1,-1,-1],"loss_changes":[3.3472888E0,3.646152E0,1.6355276E-2,3.9169915E0,0E0,3.274572E-2,0E0,4.2985735E0,0E0,0E0,0E0,0E0,0E0],"parents":[2147483647,0,0,1,1,2,2,3,3,5,5,7,7],"right_children":[2,4,6,8,-1,10,-1,12,-1,-1,-1,-1,-1],"split_conditions":[1E0,1E0,2.024E3,1E0,1.9171065E-2,2.023E3,2.4114124E-2,8E-1,1.8772284E-2,1.7893717E-2,8.775357E-3,1.8530494E-2,-4.79006E-3],"split_indices":[11,8,0,18,0,0,0,1,0,0,0,0,0],"split_type":[0,0,0,0,0,0,0,0,0,0,0,0,0],"sum_hessian":[4.2E2,4E2,2E1,3.8E2,2E1,1.3E1,7E0,3.6E2,2E1,8E0,5E0,2E1,3.4E2],"tree_param":{"num_deleted":"0","num_feature":"22","num_nodes":"13","size_leaf_vector":"1"}},{"base_weights":[-1.600263E-3,1.8238056E-2,-3.803415E-1,3.997245E-2,-3.7695444E-1,-2.2795407E-2,-1.3509919E-2,6.3817985E-2,-1.8592352E-2,-2.1037044E-2,-1.2660446E-2,7.005033E-3,-4.4322177E-3],"categories":[],"categories_nodes":[],"categories_segments":[],"categories_sizes":[],"default_left":[0,0,0,0,0,0,0,0,0,0,0,0,0],"id":62,"left_children":[1,3,5,7,9,-1,-1,11,-1,-1,-1,-1,-1],"loss_changes":[3.170158E0,3.4593651E0,5.1600218E-2,3.7651713E0,7.2505474E-3,0E0,0E0,4.210934E0,0E0,0E0,0E0,0E0,0E0],"parents":[2147483647,0,0,1,1,2,2,3,3,4,4,7,7],"right_children":[2,4,6,8,10,-1,-1,12,-1,-1,-1,-1,-1],"split_conditions":[1E0,1E0,2.024E3,1E0,2.024E3,-2.2795407E-2,-1.3509919E-2,6.9E0,-1.8592352E-2,-2.1037044E-2,-1.2660446E-2,7.005033E-3,-4.4322177E-3],"split_indices":[5,19,0,16,0,0,0,1,0,0,0,0,0],"split_type":[0,0,0,0,0,0,0,0,0,0,0,0,0],"sum_hessian":[4.2E2,4E2,2E1,3.8E2,2E1,1E1,1E1,3.6E2,2E1,1.3E1,7E0,2.4E2,1.2E2],"tree_param":{"num_deleted":"0","num_feature":"22","num_nodes":"13","size_leaf_vector":"1"}},{"base_weights":[-1.7245528E-3,-2.1154871E-2,1.8469207E-2,2.5715373E-2,-2.0663874E-1,-4.8100714E-2,2.4502353E-1,-3.1184977E-1,-9.638773E-2,8.3028805E-4,-1.8207354E-2,1.7262572E-2,-2.8891207E-3,-1.7750433E-2,-1.2692046E-2,-8.315333E-3,-1.7218922E-3],"categories":[],"categories_nodes":[],"categories_segments":[],"categories_sizes":[],"default_left":[0,0,0,0,0,0,0,0,0,0,0,0,0,0,0,0,0],"id":63,"left_children":[1,3,-1,5,7,9,11,13,15,-1,-1,-1,-1,-1,-1,-1,-1],"loss_changes":[3.043544E0,3.4914775E0,0E0,5.2082844E0,9.095106E-1,4.934556E0,2.4782677E0,1.2531757E-2,1.7186293E-1,0E0,0E0,0E0,0E0,0E0,0E0,0E0,0E0],"parents":[2147483647,0,0,1,1,3,3,4,4,5,5,6,6,7,7,8,8],"right_children":[2,4,-1,6,8,10,12,14,16,-1,-1,-1,-1,-1,-1,-1,-1],"split_conditions":[1E0,8.9E0,1.8469207E-2,5.9E0,1.04E1,4.4E0,6.9E0,9E0,2.023E3,8.3028805E-4,-1.8207354E-2,1.7262572E-2,-2.8891207E-3,-1.7750433E-2,-1.2692046E-2,-8.315333E-3,-1.7218922E-3],"split_indices":[8,1,0,1,1,1,1,1,0,0,0,0,0,0,0,0,0],"split_type":[0,0,0,0,0,0,0,0,0,0,0,0,0,0,0,0,0],"sum_hessian":[4.2E2,4E2,2E1,3.2E2,8E1,2.4E2,8E1,4E1,4E1,2E2,4E1,6E1,2E1,2E1,2E1,1.8E1,2.2E1],"tree_param":{"num_deleted":"0","num_feature":"22","num_nodes":"17","size_leaf_vector":"1"}},{"base_weights":[-1.6977125E-3,1.7745055E-2,-1.8644057E-2,3.9042633E-2,-3.6949888E-1,3.8602707E-1,-2.7016848E-2,-2.1929946E-2,-6.1824485E-3,8.384896E-3,3.9695326E-2,-1.48625225E-2,6.2542007E-4],"categories":[],"categories_nodes":[],"categories_segments":[],"categories_sizes":[],"default_left":[0,0,0,0,0,0,0,0,0,0,0,0,0],"id":64,"left_children":[1,3,-1,5,7,9,11,-1,-1,-1,-1,-1,-1],"loss_changes":[3.0449038E0,3.321617E0,0E0,8.743564E0,3.0252075E-1,5.299035E0,3.4323356E0,0E0,0E0,0E0,0E0,0E0,0E0],"parents":[2147483647,0,0,1,1,3,3,4,4,5,5,6,6],"right_children":[2,4,-1,6,8,10,12,-1,-1,-1,-1,-1,-1],"split_conditions":[1E0,1E0,-1.8644057E-2,1.9E0,2.025E3,1.5E0,2.5E0,-2.1929946E-2,-6.1824485E-3,8.384896E-3,3.9695326E-2,-1.48625225E-2,6.2542007E-4],"split_indices":[6,13,0,1,0,1,1,0,0,0,0,0,0],"split_type":[0,0,0,0,0,0,0,0,0,0,0,0,0],"sum_hessian":[4.2E2,4E2,2E1,3.8E2,2E1,6E1,3.2E2,1.5E1,5E0,4E1,2E1,4E1,2.8E2],"tree_param":{"num_deleted":"0","num_feature":"22","num_nodes":"13","size_leaf_vector":"1"}},{"base_weights":[-1.6434932E-3,-2.0695874E-2,3.6224452E-1,-4.1139666E-2,1.7559923E-2,2.840641E-1,2.2688983E-2,-6.375045E-2,3.495096E-1,1.6722415E-2,8.057191E-3,1.68757E-2,-4.4137402E-3,1.412597E-2,2.2156505E-2],"categories":[],"categories_nodes":[],"categories_segments":[],"categories_sizes":[],"default_left":[0,0,0,0,0,0,0,0,0,0,0,0,0,0,0],"id":65,"left_children":[1,3,5,7,-1,9,-1,11,13,-1,-1,-1,-1,-1,-1],"loss_changes":[2.9262617E0,3.0632236E0,2.1378994E-2,3.387612E0,0E0,3.2811046E-2,0E0,3.5823042E0,6.511688E-3,0E0,0E0,0E0,0E0,0E0,0E0],"parents":[2147483647,0,0,1,1,2,2,3,3,5,5,7,7,8,8],"right_children":[2,4,6,8,-1,10,-1,12,14,-1,-1,-1,-1,-1,-1],"split_conditions":[1E0,1E0,2.024E3,1E0,1.7559923E-2,2.023E3,2.2688983E-2,8E-1,2.024E3,1.6722415E-2,8.057191E-3,1.68757E-2,-4.4137402E-3,1.412597E-2,2.2156505E-2],"split_indices":[11,8,0,18,0,0,0,1,0,0,0,0,0,0,0],"split_type":[0,0,0,0,0,0,0,0,0,0,0,0,0,0,0],"sum_hessian":[4.2E2,4E2,2E1,3.8E2,2E1,1.3E1,7E0,3.6E2,2E1,8E0,5E0,2E1,3.4E2,1.4E1,6E0],"tree_param":{"num_deleted":"0","num_feature":"22","num_nodes":"15","size_leaf_vector":"1"}},{"base_weights":[-1.2910638E-3,1.7334765E-2,-3.5689422E-1,3.758685E-2,-3.509214E-1,-1.9922988E-2,-1.1977139E-2,5.9922244E-2,-3.4815904E-1,-2.135766E-2,-1.3557578E-2,1.824376E-2,-1.0389665E-4,-2.0695085E-2,-5.740942E-3],"categories":[],"categories_nodes":[],"categories_segments":[],"categories_sizes":[],"default_left":[0,0,0,0,0,0,0,0,0,0,0,0,0,0,0],"id":66,"left_children":[1,3,5,7,9,-1,-1,11,13,-1,-1,-1,-1,-1,-1],"loss_changes":[2.7946398E0,3.00383E0,6.9851875E-3,3.3034766E0,1.1877537E-2,0E0,0E0,6.8262353E0,2.7462482E-1,0E0,0E0,0E0,0E0,0E0,0E0],"parents":[2147483647,0,0,1,1,2,2,3,3,4,4,7,7,8,8],"right_children":[2,4,6,8,10,-1,-1,12,14,-1,-1,-1,-1,-1,-1],"split_conditions":[1E0,1E0,2.024E3,1E0,2.023E3,-1.9922988E-2,-1.1977139E-2,1.9E0,2.025E3,-2.135766E-2,-1.3557578E-2,1.824376E-2,-1.0389665E-4,-2.0695085E-2,-5.740942E-3],"split_indices":[19,6,0,13,0,0,0,1,0,0,0,0,0,0,0],"split_type":[0,0,0,0,0,0,0,0,0,0,0,0,0,0,0],"sum_hessian":[4.2E2,4E2,2E1,3.8E2,2E1,1.3E1,7E0,3.6E2,2E1,8E0,1.2E1,6E1,3E2,1.5E1,5E0],"tree_param":{"num_deleted":"0","num_feature":"22","num_nodes":"15","size_leaf_vector":"1"}},{"base_weights":[-1.4049008E-3,-1.9620424E-2,3.4649175E-1,-3.9091434E-2,1.6728682E-2,2.717274E-1,2.1700894E-2,-6.067843E-2,3.338608E-1,1.5983814E-2,7.725809E-3,-4.216619E-3,1.6315302E-2,1.3471605E-2,2.1211397E-2],"categories":[],"categories_nodes":[],"categories_segments":[],"categories_sizes":[],"default_left":[0,0,0,0,0,0,0,0,0,0,0,0,0,0,0],"id":67,"left_children":[1,3,5,7,-1,9,-1,11,13,-1,-1,-1,-1,-1,-1],"loss_changes":[2.6747258E0,2.7785823E0,1.948595E-2,3.087658E0,0E0,2.9286861E-2,0E0,3.3320074E0,7.96628E-3,0E0,0E0,0E0,0E0,0E0,0E0],"parents":[2147483647,0,0,1,1,2,2,3,3,5,5,7,7,8,8],"right_children":[2,4,6,8,-1,10,-1,12,14,-1,-1,-1,-1,-1,-1],"split_conditions":[1E0,1E0,2.024E3,1E0,1.6728682E-2,2.023E3,2.1700894E-2,1E0,2.024E3,1.5983814E-2,7.725809E-3,-4.216619E-3,1.6315302E-2,1.3471605E-2,2.1211397E-2],"split_indices":[11,8,0,18,0,0,0,7,0,0,0,0,0,0,0],"split_type":[0,0,0,0,0,0,0,0,0,0,0,0,0,0,0],"sum_hessian":[4.2E2,4E2,2E1,3.8E2,2E1,1.3E1,7E0,3.6E2,2E1,8E0,5E0,3.4E2,2E1,1.4E1,6E0],"tree_param":{"num_deleted":"0","num_feature":"22","num_nodes":"15","size_leaf_vector":"1"}},{"base_weights":[-1.0759147E-3,1.6747696E-2,-3.413708E-1,3.6176994E-2,-3.3655277E-1,-2.0724406E-2,-1.1860988E-2,5.7479773E-2,-3.3175063E-1,-1.8802222E-2,-1.1268662E-2,6.2956065E-3,-3.964721E-3,-8.033527E-3,-1.8127678E-2],"categories":[],"categories_nodes":[],"categories_segments":[],"categories_sizes":[],"default_left":[0,0,0,0,0,0,0,0,0,0,0,0,0,0,0],"id":68,"left_children":[1,3,5,7,9,-1,-1,11,13,-1,-1,-1,-1,-1,-1],"loss_changes":[2.5592015E0,2.7647913E0,6.159544E-2,3.0053015E0,7.45368E-3,0E0,0E0,3.388865E0,5.2413702E-2,0E0,0E0,0E0,0E0,0E0,0E0],"parents":[2147483647,0,0,1,1,2,2,3,3,4,4,7,7,8,8],"right_children":[2,4,6,8,10,-1,-1,12,14,-1,-1,-1,-1,-1,-1],"split_conditions":[1E0,1E0,2.024E3,1E0,2.024E3,-2.0724406E-2,-1.1860988E-2,6.9E0,2.022E3,-1.8802222E-2,-1.1268662E-2,6.2956065E-3,-3.964721E-3,-8.033527E-3,-1.8127678E-2],"split_indices":[5,19,0,3,0,0,0,1,0,0,0,0,0,0,0],"split_type":[0,0,0,0,0,0,0,0,0,0,0,0,0,0,0],"sum_hessian":[4.2E2,4E2,2E1,3.8E2,2E1,1E1,1E1,3.6E2,2E1,1.3E1,7E0,2.4E2,1.2E2,4E0,1.6E1],"tree_param":{"num_deleted":"0","num_feature":"22","num_nodes":"15","size_leaf_vector":"1"}},{"base_weights":[-1.227567E-3,1.6360529E-2,-3.3701798E-1,3.568792E-2,-1.6753634E-2,-2.050083E-2,-1.3027799E-2,5.7093862E-2,-3.3398983E-1,1.7244278E-2,-7.0952716E-5,-1.982245E-2,-5.588354E-3],"categories":[],"categories_nodes":[],"categories_segments":[],"categories_sizes":[],"default_left":[0,0,0,0,0,0,0,0,0,0,0,0,0],"id":69,"left_children":[1,3,5,7,-1,-1,-1,9,11,-1,-1,-1,-1],"loss_changes":[2.4919033E0,2.7356656E0,1.0381699E-2,3.0340362E0,0E0,0E0,0E0,6.0795603E0,2.4716663E-1,0E0,0E0,0E0,0E0],"parents":[2147483647,0,0,1,1,2,2,3,3,7,7,8,8],"right_children":[2,4,6,8,-1,-1,-1,10,12,-1,-1,-1,-1],"split_conditions":[1E0,1E0,2.023E3,1E0,-1.6753634E-2,-2.050083E-2,-1.3027799E-2,1.9E0,2.025E3,1.7244278E-2,-7.0952716E-5,-1.982245E-2,-5.588354E-3],"split_indices":[6,16,0,13,0,0,0,1,0,0,0,0,0],"split_type":[0,0,0,0,0,0,0,0,0,0,0,0,0],"sum_hessian":[4.2E2,4E2,2E1,3.8E2,2E1,8E0,1.2E1,3.6E2,2E1,6E1,3E2,1.5E1,5E0],"tree_param":{"num_deleted":"0","num_feature":"22","num_nodes":"13","size_leaf_vector":"1"}},{"base_weights":[-1.305177E-3,-1.8411243E-2,3.2540137E-1,-3.7152484E-2,1.6124258E-2,2.540546E-1,2.0479154E-2,-5.775815E-2,3.1883788E-1,1.4996774E-2,7.1445443E-3,-4.029397E-3,1.5785225E-2,1.1259067E-2,2.0934656E-2],"categories":[],"categories_nodes":[],"categories_segments":[],"categories_sizes":[],"default_left":[0,0,0,0,0,0,0,0,0,0,0,0,0,0,0],"id":70,"left_children":[1,3,5,7,-1,9,-1,11,13,-1,-1,-1,-1,-1,-1],"loss_changes":[2.3588185E0,2.5738988E0,2.2071362E-2,2.81321E0,0E0,2.8545976E-2,0E0,3.103354E0,1.0211229E-1,0E0,0E0,0E0,0E0,0E0,0E0],"parents":[2147483647,0,0,1,1,2,2,3,3,5,5,7,7,8,8],"right_children":[2,4,6,8,-1,10,-1,12,14,-1,-1,-1,-1,-1,-1],"split_conditions":[1E0,1E0,2.024E3,1E0,1.6124258E-2,2.023E3,2.0479154E-2,1E0,2.024E3,1.4996774E-2,7.1445443E-3,-4.029397E-3,1.5785225E-2,1.1259067E-2,2.0934656E-2],"split_indices":[11,8,0,10,0,0,0,17,0,0,0,0,0,0,0],"split_type":[0,0,0,0,0,0,0,0,0,0,0,0,0,0,0],"sum_hessian":[4.2E2,4E2,2E1,3.8E2,2E1,1.3E1,7E0,3.6E2,2E1,8E0,5E0,3.4E2,2E1,1.2E1,8E0],"tree_param":{"num_deleted":"0","num_feature":"22","num_nodes":"15","size_leaf_vector":"1"}},{"base_weights":[-9.959611E-4,1.5853858E-2,-3.2269984E-1,3.4431294E-2,-3.2194886E-1,-9.756867E-3,-2.0105515E-2,5.4833163E-2,-3.1792617E-1,-1.9596009E-2,-1.1135475E-2,3.8793348E-3,-1.5862599E-2,-1.7853448E-2,-1.0484274E-2],"categories":[],"categories_nodes":[],"categories_segments":[],"categories_sizes":[],"default_left":[0,0,0,0,0,0,0,0,0,0,0,0,0,0,0],"id":71,"left_children":[1,3,5,7,9,-1,-1,11,13,-1,-1,-1,-1,-1,-1],"loss_changes":[2.2872105E0,2.527564E0,1.3425899E-1,2.756347E0,5.853772E-2,0E0,0E0,3.0809317E0,1.4101744E-2,0E0,0E0,0E0,0E0,0E0,0E0],"parents":[2147483647,0,0,1,1,2,2,3,3,4,4,7,7,8,8],"right_children":[2,4,6,8,10,-1,-1,12,14,-1,-1,-1,-1,-1,-1],"split_conditions":[1E0,1E0,2.023E3,1E0,2.024E3,-9.756867E-3,-2.0105515E-2,1E0,2.024E3,-1.9596009E-2,-1.1135475E-2,3.8793348E-3,-1.5862599E-2,-1.7853448E-2,-1.0484274E-2],"split_indices":[14,5,0,6,0,0,0,19,0,0,0,0,0,0,0],"split_type":[0,0,0,0,0,0,0,0,0,0,0,0,0,0,0],"sum_hessian":[4.2E2,4E2,2E1,3.8E2,2E1,9E0,1.1E1,3.6E2,2E1,1E1,1E1,3.4E2,2E1,1.3E1,7E0],"tree_param":{"num_deleted":"0","num_feature":"22","num_nodes":"15","size_leaf_vector":"1"}},{"base_weights":[-1.1858584E-3,1.5459363E-2,-1.5948694E-2,3.3818137E-2,-3.183574E-1,5.408553E-2,-3.1619838E-1,-1.8886236E-2,-5.34925E-3,5.9406073E-3,-3.763988E-3,-7.7033453E-3,-1.7264212E-2],"categories":[],"categories_nodes":[],"categories_segments":[],"categories_sizes":[],"default_left":[0,0,0,0,0,0,0,0,0,0,0,0,0],"id":72,"left_children":[1,3,-1,5,7,9,11,-1,-1,-1,-1,-1,-1],"loss_changes":[2.2318745E0,2.4682815E0,0E0,2.719886E0,2.2310996E-1,3.0317335E0,4.583335E-2,0E0,0E0,0E0,0E0,0E0,0E0],"parents":[2147483647,0,0,1,1,3,3,4,4,5,5,6,6],"right_children":[2,4,-1,6,8,10,12,-1,-1,-1,-1,-1,-1],"split_conditions":[1E0,1E0,-1.5948694E-2,1E0,2.025E3,6.9E0,2.022E3,-1.8886236E-2,-5.34925E-3,5.9406073E-3,-3.763988E-3,-7.7033453E-3,-1.7264212E-2],"split_indices":[16,13,0,3,0,1,0,0,0,0,0,0,0],"split_type":[0,0,0,0,0,0,0,0,0,0,0,0,0],"sum_hessian":[4.2E2,4E2,2E1,3.8E2,2E1,3.6E2,2E1,1.5E1,5E0,2.4E2,1.2E2,4E0,1.6E1],"tree_param":{"num_deleted":"0","num_feature":"22","num_nodes":"13","size_leaf_vector":"1"}},{"base_weights":[-1.2761665E-3,1.5050266E-2,-3.1297252E-1,3.2873843E-2,-3.09037E-1,-1.8975308E-2,-1.08993435E-2,5.2600514E-2,-3.078025E-1,-1.888114E-2,-2.3778246E-1,3.721588E-3,-1.5220106E-2,-1.7278226E-2,-1.0162182E-2,-9.040085E-3,-1.603944E-2],"categories":[],"categories_nodes":[],"categories_segments":[],"categories_sizes":[],"default_left":[0,0,0,0,0,0,0,0,0,0,0,0,0,0,0,0,0],"id":73,"left_children":[1,3,5,7,9,-1,-1,11,13,-1,15,-1,-1,-1,-1,-1,-1],"loss_changes":[2.1471329E0,2.3264933E0,4.9987316E-2,2.5766673E0,1.2835741E-2,0E0,0E0,2.8362236E0,1.2681484E-2,0E0,3.4878254E-3,0E0,0E0,0E0,0E0,0E0,0E0],"parents":[2147483647,0,0,1,1,2,2,3,3,4,4,7,7,8,8,10,10],"right_children":[2,4,6,8,10,-1,-1,12,14,-1,16,-1,-1,-1,-1,-1,-1],"split_conditions":[1E0,1E0,2.024E3,1E0,2.023E3,-1.8975308E-2,-1.08993435E-2,1E0,2.024E3,-1.888114E-2,2.025E3,3.721588E-3,-1.5220106E-2,-1.7278226E-2,-1.0162182E-2,-9.040085E-3,-1.603944E-2],"split_indices":[5,6,0,19,0,0,0,14,0,0,0,0,0,0,0,0,0],"split_type":[0,0,0,0,0,0,0,0,0,0,0,0,0,0,0,0,0],"sum_hessian":[4.2E2,4E2,2E1,3.8E2,2E1,1E1,1E1,3.6E2,2E1,8E0,1.2E1,3.4E2,2E1,1.3E1,7E0,9E0,3E0],"tree_param":{"num_deleted":"0","num_feature":"22","num_nodes":"17","size_leaf_vector":"1"}},{"base_weights":[-1.480198E-3,1.4540515E-2,-1.5366453E-2,3.223266E-2,-3.07138E-1,5.176787E-2,-3.0512175E-1,-1.8175395E-2,-5.2814293E-3,5.6873714E-3,-3.6053427E-3,-9.945528E-3,-1.7759085E-2],"categories":[],"categories_nodes":[],"categories_segments":[],"categories_sizes":[],"default_left":[0,0,0,0,0,0,0,0,0,0,0,0,0],"id":74,"left_children":[1,3,-1,5,7,9,11,-1,-1,-1,-1,-1,-1],"loss_changes":[2.0673337E0,2.2920644E0,0E0,2.5266957E0,2.0014346E-1,2.779852E0,4.100597E-2,0E0,0E0,0E0,0E0,0E0,0E0],"parents":[2147483647,0,0,1,1,3,3,4,4,5,5,6,6],"right_children":[2,4,-1,6,8,10,12,-1,-1,-1,-1,-1,-1],"split_conditions":[1E0,1E0,-1.5366453E-2,1E0,2.025E3,6.9E0,2.023E3,-1.8175395E-2,-5.2814293E-3,5.6873714E-3,-3.6053427E-3,-9.945528E-3,-1.7759085E-2],"split_indices":[16,13,0,3,0,1,0,0,0,0,0,0,0],"split_type":[0,0,0,0,0,0,0,0,0,0,0,0,0],"sum_hessian":[4.2E2,4E2,2E1,3.8E2,2E1,3.6E2,2E1,1.5E1,5E0,2.4E2,1.2E2,8E0,1.2E1],"tree_param":{"num_deleted":"0","num_feature":"22","num_nodes":"13","size_leaf_vector":"1"}},{"base_weights":[-1.5592996E-3,-1.770956E-2,1.5345401E-2,2.1180755E-2,-1.716118E-1,-4.3152545E-2,2.1233068E-1,-1.3138913E-2,-7.62597E-2,4.6311E-4,-1.4953005E-2,1.4783265E-2,-1.9923772E-3,-7.166289E-3,-8.7708293E-4],"categories":[],"categories_nodes":[],"categories_segments":[],"categories_sizes":[],"default_left":[0,0,0,0,0,0,0,0,0,0,0,0,0,0,0],"id":75,"left_children":[1,3,-1,5,7,9,11,-1,13,-1,-1,-1,-1,-1,-1],"loss_changes":[2.1027846E0,2.4037428E0,0E0,3.9565976E0,6.840863E-1,3.2353823E0,1.7140105E0,0E0,1.5894336E-1,0E0,0E0,0E0,0E0,0E0,0E0],"parents":[2147483647,0,0,1,1,3,3,4,4,5,5,6,6,8,8],"right_children":[2,4,-1,6,8,10,12,-1,14,-1,-1,-1,-1,-1,-1],"split_conditions":[1E0,8.9E0,1.5345401E-2,5.9E0,1.04E1,4.4E0,6.9E0,-1.3138913E-2,2.023E3,4.6311E-4,-1.4953005E-2,1.4783265E-2,-1.9923772E-3,-7.166289E-3,-8.7708293E-4],"split_indices":[8,1,0,1,1,1,1,0,0,0,0,0,0,0,0],"split_type":[0,0,0,0,0,0,0,0,0,0,0,0,0,0,0],"sum_hessian":[4.2E2,4E2,2E1,3.2E2,8E1,2.4E2,8E1,4E1,4E1,2E2,4E1,6E1,2E1,1.8E1,2.2E1],"tree_param":{"num_deleted":"0","num_feature":"22","num_nodes":"15","size_leaf_vector":"1"}},{"base_weights":[-1.4992419E-3,1.437782E-2,-3.0460414E-1,3.1752665E-2,-3.0153614E-1,-1.8392362E-2,-1.0683487E-2,5.093871E-2,-2.9957664E-1,-1.6885022E-2,-2.0055662E-1,3.5995597E-3,-1.4666959E-2,-1.676158E-2,-9.986671E-3,-3.5096467E-3,-1.5668605E-2],"categories":[],"categories_nodes":[],"categories_segments":[],"categories_sizes":[],"default_left":[0,0,0,0,0,0,0,0,0,0,0,0,0,0,0,0,0],"id":76,"left_children":[1,3,5,7,9,-1,-1,11,13,-1,15,-1,-1,-1,-1,-1,-1],"loss_changes":[2.0304065E0,2.2106454E0,4.217279E-2,2.437239E0,8.960962E-3,0E0,0E0,2.6376112E0,7.801056E-3,0E0,9.565979E-2,0E0,0E0,0E0,0E0,0E0,0E0],"parents":[2147483647,0,0,1,1,2,2,3,3,4,4,7,7,8,8,10,10],"right_children":[2,4,6,8,10,-1,-1,12,14,-1,16,-1,-1,-1,-1,-1,-1],"split_conditions":[1E0,1E0,2.024E3,1E0,2.024E3,-1.8392362E-2,-1.0683487E-2,1E0,2.024E3,-1.6885022E-2,2.025E3,3.5995597E-3,-1.4666959E-2,-1.676158E-2,-9.986671E-3,-3.5096467E-3,-1.5668605E-2],"split_indices":[5,6,0,19,0,0,0,13,0,0,0,0,0,0,0,0,0],"split_type":[0,0,0,0,0,0,0,0,0,0,0,0,0,0,0,0,0],"sum_hessian":[4.2E2,4E2,2E1,3.8E2,2E1,1E1,1E1,3.6E2,2E1,1.3E1,7E0,3.4E2,2E1,1.3E1,7E0,4E0,3E0],"tree_param":{"num_deleted":"0","num_feature":"22","num_nodes":"17","size_leaf_vector":"1"}},{"base_weights":[-1.6688603E-3,-1.7177213E-2,2.9454628E-1,-3.4006845E-2,2.889784E-1,1.165355E-2,1.921005E-2,-5.269466E-2,2.8886494E-1,2.2130552E-1,1.8564181E-2,-3.629436E-3,1.364281E-2,1.0331371E-2,1.666621E-2,1.3295068E-2,5.8763763E-3],"categories":[],"categories_nodes":[],"categories_segments":[],"categories_sizes":[],"default_left":[0,0,0,0,0,0,0,0,0,0,0,0,0,0,0,0,0],"id":77,"left_children":[1,3,5,7,9,-1,-1,11,13,15,-1,-1,-1,-1,-1,-1,-1],"loss_changes":[1.9390529E0,2.0759745E0,2.619636E-2,2.3140874E0,3.4799337E-2,0E0,0E0,2.357833E0,7.906556E-3,3.3542216E-2,0E0,0E0,0E0,0E0,0E0,0E0,0E0],"parents":[2147483647,0,0,1,1,2,2,3,3,4,4,7,7,8,8,9,9],"right_children":[2,4,6,8,10,-1,-1,12,14,16,-1,-1,-1,-1,-1,-1,-1],"split_conditions":[1E0,1E0,2.024E3,1E0,2.024E3,1.165355E-2,1.921005E-2,1E0,2.023E3,2.023E3,1.8564181E-2,-3.629436E-3,1.364281E-2,1.0331371E-2,1.666621E-2,1.3295068E-2,5.8763763E-3],"split_indices":[18,11,0,8,0,0,0,7,0,0,0,0,0,0,0,0,0],"split_type":[0,0,0,0,0,0,0,0,0,0,0,0,0,0,0,0,0],"sum_hessian":[4.2E2,4E2,2E1,3.8E2,2E1,1.4E1,6E0,3.6E2,2E1,1.3E1,7E0,3.4E2,2E1,9E0,1.1E1,8E0,5E0],"tree_param":{"num_deleted":"0","num_feature":"22","num_nodes":"17","size_leaf_vector":"1"}},{"base_weights":[-1.3345595E-3,1.3644613E-2,-2.8730187E-1,3.0054094E-2,-2.8472E-1,-1.7391374E-2,-1.0032898E-2,4.814771E-2,-2.824149E-1,-1.7403578E-2,-2.1895969E-1,5.313723E-3,-3.4011658E-3,-1.5814854E-2,-9.390964E-3,-8.25441E-3,-1.4944926E-2],"categories":[],"categories_nodes":[],"categories_segments":[],"categories_sizes":[],"default_left":[0,0,0,0,0,0,0,0,0,0,0,0,0,0,0,0,0],"id":78,"left_children":[1,3,5,7,9,-1,-1,11,13,-1,15,-1,-1,-1,-1,-1,-1],"loss_changes":[1.8072963E0,1.9718562E0,4.033327E-2,2.1676548E0,1.1272669E-2,0E0,0E0,2.4449337E0,7.900596E-3,0E0,6.6388845E-3,0E0,0E0,0E0,0E0,0E0,0E0],"parents":[2147483647,0,0,1,1,2,2,3,3,4,4,7,7,8,8,10,10],"right_children":[2,4,6,8,10,-1,-1,12,14,-1,16,-1,-1,-1,-1,-1,-1],"split_conditions":[1E0,1E0,2.024E3,1E0,2.023E3,-1.7391374E-2,-1.0032898E-2,6.9E0,2.024E3,-1.7403578E-2,2.025E3,5.313723E-3,-3.4011658E-3,-1.5814854E-2,-9.390964E-3,-8.25441E-3,-1.4944926E-2],"split_indices":[5,6,0,19,0,0,0,1,0,0,0,0,0,0,0,0,0],"split_type":[0,0,0,0,0,0,0,0,0,0,0,0,0,0,0,0,0],"sum_hessian":[4.2E2,4E2,2E1,3.8E2,2E1,1E1,1E1,3.6E2,2E1,8E0,1.2E1,2.4E2,1.2E2,1.3E1,7E0,9E0,3E0],"tree_param":{"num_deleted":"0","num_feature":"22","num_nodes":"17","size_leaf_vector":"1"}},{"base_weights":[-1.4847133E-3,1.3287115E-2,-1.417428E-2,2.9526597E-2,-2.819762E-1,4.750721E-2,-2.8097478E-1,-9.073763E-3,-1.6493164E-2,3.3591203E-3,-1.3712135E-2,-1.6736573E-2,-4.539724E-3],"categories":[],"categories_nodes":[],"categories_segments":[],"categories_sizes":[],"default_left":[0,0,0,0,0,0,0,0,0,0,0,0,0],"id":79,"left_children":[1,3,-1,5,7,9,11,-1,-1,-1,-1,-1,-1],"loss_changes":[1.7575132E0,1.9310899E0,0E0,2.1404738E0,4.120457E-2,2.303732E0,1.8430102E-1,0E0,0E0,0E0,0E0,0E0,0E0],"parents":[2147483647,0,0,1,1,3,3,4,4,5,5,6,6],"right_children":[2,4,-1,6,8,10,12,-1,-1,-1,-1,-1,-1],"split_conditions":[1E0,1E0,-1.417428E-2,1E0,2.023E3,1E0,2.025E3,-9.073763E-3,-1.6493164E-2,3.3591203E-3,-1.3712135E-2,-1.6736573E-2,-4.539724E-3],"split_indices":[16,3,0,13,0,5,0,0,0,0,0,0,0],"split_type":[0,0,0,0,0,0,0,0,0,0,0,0,0],"sum_hessian":[4.2E2,4E2,2E1,3.8E2,2E1,3.6E2,2E1,8E0,1.2E1,3.4E2,2E1,1.5E1,5E0],"tree_param":{"num_deleted":"0","num_feature":"22","num_nodes":"13","size_leaf_vector":"1"}},{"base_weights":[-1.5799977E-3,-1.609943E-2,2.7574724E-1,2.107504E-2,-1.6322172E-1,9.868357E-3,1.5904253E-2,-3.619901E-2,1.9122283E-1,-1.2494482E-2,-7.2572775E-2,6.4595597E-4,-1.3805739E-2,1.3348001E-2,-1.8940751E-3,-6.823429E-3,-8.316976E-4],"categories":[],"categories_nodes":[],"categories_segments":[],"categories_sizes":[],"default_left":[0,0,0,0,0,0,0,0,0,0,0,0,0,0,0,0,0],"id":80,"left_children":[1,3,5,7,9,-1,-1,11,13,-1,15,-1,-1,-1,-1,-1,-1],"loss_changes":[1.6996523E0,2.1965864E0,6.90794E-3,3.1350842E0,6.182294E-1,0E0,0E0,2.8435624E0,1.415602E0,0E0,1.4427452E-1,0E0,0E0,0E0,0E0,0E0,0E0],"parents":[2147483647,0,0,1,1,2,2,3,3,4,4,7,7,8,8,10,10],"right_children":[2,4,6,8,10,-1,-1,12,14,-1,16,-1,-1,-1,-1,-1,-1],"split_conditions":[1E0,8.9E0,2.023E3,5.9E0,1.04E1,9.868357E-3,1.5904253E-2,4.4E0,6.9E0,-1.2494482E-2,2.023E3,6.4595597E-4,-1.3805739E-2,1.3348001E-2,-1.8940751E-3,-6.823429E-3,-8.316976E-4],"split_indices":[8,1,0,1,1,0,0,1,1,0,0,0,0,0,0,0,0],"split_type":[0,0,0,0,0,0,0,0,0,0,0,0,0,0,0,0,0],"sum_hessian":[4.2E2,4E2,2E1,3.2E2,8E1,9E0,1.1E1,2.4E2,8E1,4E1,4E1,2E2,4E1,6E1,2E1,1.8E1,2.2E1],"tree_param":{"num_deleted":"0","num_feature":"22","num_nodes":"17","size_leaf_vector":"1"}},{"base_weights":[-1.4916866E-3,1.289992E-2,-2.7623183E-1,1.5884745E-1,-2.3968149E-2,-1.5473867E-2,-1.835232E-1,-3.0317998E-2,7.007639E-1,-2.4868055E-1,8.904365E-3,-3.0541099E-3,-1.4534682E-2,1.3095028E-2,-8.962573E-3,2.8092286E-2,4.772092E-2,-1.45979775E-2,-5.2052527E-3,1.5788528E-3,-1.36654405E-2],"categories":[],"categories_nodes":[],"categories_segments":[],"categories_sizes":[],"default_left":[0,0,0,0,0,0,0,0,0,0,0,0,0,0,0,0,0,0,0,0,0],"id":81,"left_children":[1,3,5,7,9,-1,11,13,15,17,19,-1,-1,-1,-1,-1,-1,-1,-1,-1,-1],"loss_changes":[1.6681771E0,2.1615095E0,7.928848E-3,8.324707E0,2.3733966E0,0E0,8.722025E-2,2.7017338E0,2.0374584E-1,2.2614598E-1,1.8066177E0,0E0,0E0,0E0,0E0,0E0,0E0,0E0,0E0,0E0,0E0],"parents":[2147483647,0,0,1,1,2,2,3,3,4,4,6,6,7,7,8,8,9,9,10,10],"right_children":[2,4,6,8,10,-1,12,14,16,18,20,-1,-1,-1,-1,-1,-1,-1,-1,-1,-1],"split_conditions":[1E0,1.9E0,2.024E3,1.7E0,2.5E0,-1.5473867E-2,2.025E3,8E-1,2.025E3,2.025E3,1E0,-3.0541099E-3,-1.4534682E-2,1.3095028E-2,-8.962573E-3,2.8092286E-2,4.772092E-2,-1.45979775E-2,-5.2052527E-3,1.5788528E-3,-1.36654405E-2],"split_indices":[6,1,0,1,1,0,0,1,0,0,19,0,0,0,0,0,0,0,0,0,0],"split_type":[0,0,0,0,0,0,0,0,0,0,0,0,0,0,0,0,0,0,0,0,0],"sum_hessian":[4.2E2,4E2,2E1,8E1,3.2E2,1.3E1,7E0,6E1,2E1,4E1,2.8E2,4E0,3E0,2E1,4E1,1.5E1,5E0,3E1,1E1,2.6E2,2E1],"tree_param":{"num_deleted":"0","num_feature":"22","num_nodes":"21","size_leaf_vector":"1"}},{"base_weights":[-1.3814751E-3,-1.5637688E-2,2.7091008E-1,-3.111711E-2,2.659479E-1,2.1202335E-1,1.7919729E-2,-4.8063636E-2,2.6168352E-1,2.014906E-1,1.7275235E-2,1.1990412E-2,6.5188976E-3,-3.3126601E-3,1.2479446E-2,9.353245E-3,1.510294E-2,1.22198425E-2,5.1774723E-3],"categories":[],"categories_nodes":[],"categories_segments":[],"categories_sizes":[],"default_left":[0,0,0,0,0,0,0,0,0,0,0,0,0,0,0,0,0,0,0],"id":82,"left_children":[1,3,5,7,9,11,-1,13,15,17,-1,-1,-1,-1,-1,-1,-1,-1,-1],"loss_changes":[1.6384939E0,1.7561471E0,3.2197118E-2,1.903082E0,3.8072467E-2,2.76196E-3,0E0,1.9710511E0,6.7631006E-3,3.352487E-2,0E0,0E0,0E0,0E0,0E0,0E0,0E0,0E0,0E0],"parents":[2147483647,0,0,1,1,2,2,3,3,4,4,5,5,7,7,8,8,9,9],"right_children":[2,4,6,8,10,12,-1,14,16,18,-1,-1,-1,-1,-1,-1,-1,-1,-1],"split_conditions":[1E0,1E0,2.024E3,1E0,2.024E3,2.023E3,1.7919729E-2,1E0,2.023E3,2.023E3,1.7275235E-2,1.1990412E-2,6.5188976E-3,-3.3126601E-3,1.2479446E-2,9.353245E-3,1.510294E-2,1.22198425E-2,5.1774723E-3],"split_indices":[18,11,0,8,0,0,0,10,0,0,0,0,0,0,0,0,0,0,0],"split_type":[0,0,0,0,0,0,0,0,0,0,0,0,0,0,0,0,0,0,0],"sum_hessian":[4.2E2,4E2,2E1,3.8E2,2E1,1.4E1,6E0,3.6E2,2E1,1.3E1,7E0,9E0,5E0,3.4E2,2E1,9E0,1.1E1,8E0,5E0],"tree_param":{"num_deleted":"0","num_feature":"22","num_nodes":"19","size_leaf_vector":"1"}},{"base_weights":[-1.0636601E-3,-1.4685504E-2,2.5909936E-1,-2.9473016E-2,2.5430152E-1,2.0265621E-1,1.7151738E-2,2.5258383E-1,-4.579911E-2,1.9265868E-1,1.651944E-2,1.1450849E-2,6.2472792E-3,1.8676136E-2,7.471369E-3,-6.598363E-3,2.0311035E-3,1.1676735E-2,4.961743E-3],"categories":[],"categories_nodes":[],"categories_segments":[],"categories_sizes":[],"default_left":[0,0,0,0,0,0,0,0,0,0,0,0,0,0,0,0,0,0,0],"id":83,"left_children":[1,3,5,7,9,11,-1,13,15,17,-1,-1,-1,-1,-1,-1,-1,-1,-1],"loss_changes":[1.4957869E0,1.6025321E0,2.9971004E-2,1.76603E0,3.484261E-2,2.1130443E-3,0E0,2.0617366E-1,2.693639E0,3.0288398E-2,0E0,0E0,0E0,0E0,0E0,0E0,0E0,0E0,0E0],"parents":[2147483647,0,0,1,1,2,2,3,3,4,4,5,5,7,7,8,8,9,9],"right_children":[2,4,6,8,10,12,-1,14,16,18,-1,-1,-1,-1,-1,-1,-1,-1,-1],"split_conditions":[1E0,1E0,2.024E3,8E-1,2.024E3,2.023E3,1.7151738E-2,2.023E3,5.9E0,2.023E3,1.651944E-2,1.1450849E-2,6.2472792E-3,1.8676136E-2,7.471369E-3,-6.598363E-3,2.0311035E-3,1.1676735E-2,4.961743E-3],"split_indices":[18,11,0,1,0,0,0,0,1,0,0,0,0,0,0,0,0,0,0],"split_type":[0,0,0,0,0,0,0,0,0,0,0,0,0,0,0,0,0,0,0],"sum_hessian":[4.2E2,4E2,2E1,3.8E2,2E1,1.4E1,6E0,2E1,3.6E2,1.3E1,7E0,9E0,5E0,8E0,1.2E1,1.8E2,1.8E2,8E0,5E0],"tree_param":{"num_deleted":"0","num_feature":"22","num_nodes":"19","size_leaf_vector":"1"}},{"base_weights":[-7.9767755E-4,1.2897639E-2,-2.62275E-1,2.7605304E-2,-2.545556E-1,-7.157924E-3,-1.6984127E-2,1.5710008E-1,-7.3338407E-3,-1.5679872E-2,-1.9409929E-1,-1.2534143E-3,3.3938747E-2,-5.2135657E-3,3.880363E-3,-7.1692667E-3,-1.3617969E-2],"categories":[],"categories_nodes":[],"categories_segments":[],"categories_sizes":[],"default_left":[0,0,0,0,0,0,0,0,0,0,0,0,0,0,0,0,0],"id":84,"left_children":[1,3,5,7,9,-1,-1,11,13,-1,15,-1,-1,-1,-1,-1,-1],"loss_changes":[1.51099E0,1.5844058E0,1.4500237E-1,1.7249627E0,1.4089465E-2,0E0,0E0,7.71466E0,2.4865189E0,0E0,1.2543052E-2,0E0,0E0,0E0,0E0,0E0,0E0],"parents":[2147483647,0,0,1,1,2,2,3,3,4,4,7,7,8,8,10,10],"right_children":[2,4,6,8,10,-1,-1,12,14,-1,16,-1,-1,-1,-1,-1,-1],"split_conditions":[1E0,1E0,2.023E3,1.9E0,2.023E3,-7.157924E-3,-1.6984127E-2,1.7E0,5.9E0,-1.5679872E-2,2.025E3,-1.2534143E-3,3.3938747E-2,-5.2135657E-3,3.880363E-3,-7.1692667E-3,-1.3617969E-2],"split_indices":[14,6,0,1,0,0,0,1,1,0,0,0,0,0,0,0,0],"split_type":[0,0,0,0,0,0,0,0,0,0,0,0,0,0,0,0,0],"sum_hessian":[4.2E2,4E2,2E1,3.8E2,2E1,9E0,1.1E1,8E1,3E2,8E0,1.2E1,6E1,2E1,1.4E2,1.6E2,9E0,3E0],"tree_param":{"num_deleted":"0","num_feature":"22","num_nodes":"17","size_leaf_vector":"1"}},{"base_weights":[-8.272783E-4,-1.4105826E-2,2.5276914E-1,-2.8522782E-2,2.4813065E-1,1.9856925E-1,1.6640095E-2,-4.4304676E-2,2.441337E-1,1.890553E-1,1.6024811E-2,1.1170171E-2,6.2042046E-3,-3.0944955E-3,1.216779E-2,8.666321E-3,1.4139766E-2,1.1389478E-2,4.9722334E-3],"categories":[],"categories_nodes":[],"categories_segments":[],"categories_sizes":[],"default_left":[0,0,0,0,0,0,0,0,0,0,0,0,0,0,0,0,0,0,0],"id":85,"left_children":[1,3,5,7,9,11,-1,13,15,17,-1,-1,-1,-1,-1,-1,-1,-1,-1],"loss_changes":[1.4212377E0,1.5231187E0,2.5008798E-2,1.6502727E0,2.9183984E-2,2.5868416E-5,0E0,1.8412077E0,8.472204E-3,2.594155E-2,0E0,0E0,0E0,0E0,0E0,0E0,0E0,0E0,0E0],"parents":[2147483647,0,0,1,1,2,2,3,3,4,4,5,5,7,7,8,8,9,9],"right_children":[2,4,6,8,10,12,-1,14,16,18,-1,-1,-1,-1,-1,-1,-1,-1,-1],"split_conditions":[1E0,1E0,2.024E3,1E0,2.024E3,2.023E3,1.6640095E-2,1E0,2.023E3,2.023E3,1.6024811E-2,1.1170171E-2,6.2042046E-3,-3.0944955E-3,1.216779E-2,8.666321E-3,1.4139766E-2,1.1389478E-2,4.9722334E-3],"split_indices":[18,11,0,8,0,0,0,17,0,0,0,0,0,0,0,0,0,0,0],"split_type":[0,0,0,0,0,0,0,0,0,0,0,0,0,0,0,0,0,0,0],"sum_hessian":[4.2E2,4E2,2E1,3.8E2,2E1,1.4E1,6E0,3.6E2,2E1,1.3E1,7E0,9E0,5E0,3.4E2,2E1,9E0,1.1E1,8E0,5E0],"tree_param":{"num_deleted":"0","num_feature":"22","num_nodes":"19","size_leaf_vector":"1"}},{"base_weights":[-5.5246166E-4,1.2374196E-2,-2.4736378E-1,2.660699E-2,-2.4643858E-1,-6.6965655E-3,-1.606386E-2,1.542141E-1,-7.8208605E-3,-1.4893812E-2,-3.4099182E-3,-9.3938224E-4,3.2469973E-2,-5.007958E-3,3.654771E-3],"categories":[],"categories_nodes":[],"categories_segments":[],"categories_sizes":[],"default_left":[0,0,0,0,0,0,0,0,0,0,0,0,0,0,0],"id":86,"left_children":[1,3,5,7,9,-1,-1,11,13,-1,-1,-1,-1,-1,-1],"loss_changes":[1.3462384E0,1.4836922E0,1.3303876E-1,1.67503E0,1.722188E-1,0E0,0E0,6.9513025E0,2.2562945E0,0E0,0E0,0E0,0E0,0E0,0E0],"parents":[2147483647,0,0,1,1,2,2,3,3,4,4,7,7,8,8],"right_children":[2,4,6,8,10,-1,-1,12,14,-1,-1,-1,-1,-1,-1],"split_conditions":[1E0,1E0,2.023E3,1.9E0,2.025E3,-6.6965655E-3,-1.606386E-2,1.8E0,5.9E0,-1.4893812E-2,-3.4099182E-3,-9.3938224E-4,3.2469973E-2,-5.007958E-3,3.654771E-3],"split_indices":[14,13,0,1,0,0,0,1,1,0,0,0,0,0,0],"split_type":[0,0,0,0,0,0,0,0,0,0,0,0,0,0,0],"sum_hessian":[4.2E2,4E2,2E1,3.8E2,2E1,9E0,1.1E1,8E1,3E2,1.5E1,5E0,6E1,2E1,1.4E2,1.6E2],"tree_param":{"num_deleted":"0","num_feature":"22","num_nodes":"15","size_leaf_vector":"1"}},{"base_weights":[-5.506979E-4,-1.3488186E-2,2.4651994E-1,2.462352E-1,-2.7768247E-2,9.723662E-3,1.6141571E-2,1.8081075E-2,7.3705623E-3,-1.8353078E-1,1.9179936E-3,-2.9201182E-3,-1.215723E-2,3.0923782E-2,-2.0552014E-3],"categories":[],"categories_nodes":[],"categories_segments":[],"categories_sizes":[],"default_left":[0,0,0,0,0,0,0,0,0,0,0,0,0,0,0],"id":87,"left_children":[1,3,5,7,9,-1,-1,-1,-1,11,13,-1,-1,-1,-1],"loss_changes":[1.3490404E0,1.4940927E0,2.0624876E-2,1.8615448E-1,1.7620977E0,0E0,0E0,0E0,0E0,4.4082212E-1,8.540126E0,0E0,0E0,0E0,0E0],"parents":[2147483647,0,0,1,1,2,2,3,3,4,4,9,9,10,10],"right_children":[2,4,6,8,10,-1,-1,-1,-1,12,14,-1,-1,-1,-1],"split_conditions":[1E0,8E-1,2.024E3,2.023E3,1.8E0,9.723662E-3,1.6141571E-2,1.8081075E-2,7.3705623E-3,1.5E0,1.9E0,-2.9201182E-3,-1.215723E-2,3.0923782E-2,-2.0552014E-3],"split_indices":[18,1,0,0,1,0,0,0,0,1,1,0,0,0,0],"split_type":[0,0,0,0,0,0,0,0,0,0,0,0,0,0,0],"sum_hessian":[4.2E2,4E2,2E1,2E1,3.8E2,1.4E1,6E0,8E0,1.2E1,6E1,3.2E2,2E1,4E1,2E1,3E2],"tree_param":{"num_deleted":"0","num_feature":"22","num_nodes":"15","size_leaf_vector":"1"}},{"base_weights":[-3.685268E-4,-1.3164602E-2,2.4399313E-1,-2.6882049E-2,2.3633595E-1,1.8732986E-1,1.5632737E-2,-4.2066477E-2,2.3542559E-1,5.984822E-3,2.5399266E-2,1.1197196E-2,5.0593554E-3,1.1756772E-2,-2.95071E-3,9.269891E-3,1.5449787E-2],"categories":[],"categories_nodes":[],"categories_segments":[],"categories_sizes":[],"default_left":[0,0,0,0,0,0,0,0,0,0,0,0,0,0,0,0,0],"id":88,"left_children":[1,3,5,7,9,11,-1,13,15,-1,-1,-1,-1,-1,-1,-1,-1],"loss_changes":[1.3196244E0,1.3787798E0,2.313292E-2,1.5274233E0,6.045821E-1,2.1496266E-2,0E0,1.7098334E0,2.0004392E-2,0E0,0E0,0E0,0E0,0E0,0E0,0E0,0E0],"parents":[2147483647,0,0,1,1,2,2,3,3,4,4,5,5,7,7,8,8],"right_children":[2,4,6,8,10,12,-1,14,16,-1,-1,-1,-1,-1,-1,-1,-1],"split_conditions":[1E0,1E0,2.024E3,1E0,2.025E3,2.023E3,1.5632737E-2,8E-1,2.024E3,5.984822E-3,2.5399266E-2,1.1197196E-2,5.0593554E-3,1.1756772E-2,-2.95071E-3,9.269891E-3,1.5449787E-2],"split_indices":[11,7,0,18,0,0,0,1,0,0,0,0,0,0,0,0,0],"split_type":[0,0,0,0,0,0,0,0,0,0,0,0,0,0,0,0,0],"sum_hessian":[4.2E2,4E2,2E1,3.8E2,2E1,1.3E1,7E0,3.6E2,2E1,1.5E1,5E0,8E0,5E0,2E1,3.4E2,1.4E1,6E0],"tree_param":{"num_deleted":"0","num_feature":"22","num_nodes":"17","size_leaf_vector":"1"}},{"base_weights":[-1.201802E-4,-1.2501387E-2,2.3630764E-1,-2.6071776E-2,2.3429954E-1,1.4876297E-1,1.682523E-2,6.599186E-3,-1.471568E-1,8.337117E-3,1.3553614E-2,1.0699699E-2,7.972956E-5,-1.4319097E-3,7.2853775E-3,-9.556043E-3,-6.222118E-4],"categories":[],"categories_nodes":[],"categories_segments":[],"categories_sizes":[],"default_left":[0,0,0,0,0,0,0,0,0,0,0,0,0,0,0,0,0],"id":89,"left_children":[1,3,5,7,9,11,-1,13,15,-1,-1,-1,-1,-1,-1,-1,-1],"loss_changes":[1.2353313E0,1.3491317E0,1.3414645E-1,1.5081937E0,6.9702864E-3,1.24458015E-1,0E0,1.4796188E0,4.77345E-1,0E0,0E0,0E0,0E0,0E0,0E0,0E0,0E0],"parents":[2147483647,0,0,1,1,2,2,3,3,4,4,5,5,7,7,8,8],"right_children":[2,4,6,8,10,12,-1,14,16,-1,-1,-1,-1,-1,-1,-1,-1],"split_conditions":[1E0,1E0,2.024E3,8.9E0,2.023E3,2.023E3,1.682523E-2,5.9E0,1E0,8.337117E-3,1.3553614E-2,1.0699699E-2,7.972956E-5,-1.4319097E-3,7.2853775E-3,-9.556043E-3,-6.222118E-4],"split_indices":[10,8,0,1,0,0,0,1,12,0,0,0,0,0,0,0,0],"split_type":[0,0,0,0,0,0,0,0,0,0,0,0,0,0,0,0,0],"sum_hessian":[4.2E2,4E2,2E1,3.8E2,2E1,1.2E1,8E0,3E2,8E1,9E0,1.1E1,8E0,4E0,2.4E2,6E1,6E1,2E1],"tree_param":{"num_deleted":"0","num_feature":"22","num_nodes":"17","size_leaf_vector":"1"}},{"base_weights":[-6.8591708E-6,-1.229696E-2,2.3467587E-1,-2.540992E-2,2.2619516E-1,1.804543E-1,1.5011457E-2,-3.9971225E-2,2.2611587E-1,1.7808235E-1,1.4849022E-2,1.076319E-2,4.908218E-3,3.3667244E-3,-4.0671257E-3,7.188692E-3,1.599652E-2,1.1354258E-2,6.5436214E-3],"categories":[],"categories_nodes":[],"categories_segments":[],"categories_sizes":[],"default_left":[0,0,0,0,0,0,0,0,0,0,0,0,0,0,0,0,0,0,0],"id":90,"left_children":[1,3,5,7,9,11,-1,13,15,17,-1,-1,-1,-1,-1,-1,-1,-1,-1],"loss_changes":[1.2171655E0,1.25981E0,2.0464778E-2,1.4044675E0,1.8632174E-2,1.8971354E-2,0E0,1.6080918E0,1.16224766E-1,4.982114E-3,0E0,0E0,0E0,0E0,0E0,0E0,0E0,0E0,0E0],"parents":[2147483647,0,0,1,1,2,2,3,3,4,4,5,5,7,7,8,8,9,9],"right_children":[2,4,6,8,10,12,-1,14,16,18,-1,-1,-1,-1,-1,-1,-1,-1,-1],"split_conditions":[1E0,1E0,2.024E3,1E0,2.024E3,2.023E3,1.5011457E-2,1.9E0,2.024E3,2.022E3,1.4849022E-2,1.076319E-2,4.908218E-3,3.3667244E-3,-4.0671257E-3,7.188692E-3,1.599652E-2,1.1354258E-2,6.5436214E-3],"split_indices":[11,18,0,17,0,0,0,1,0,0,0,0,0,0,0,0,0,0,0],"split_type":[0,0,0,0,0,0,0,0,0,0,0,0,0,0,0,0,0,0,0],"sum_hessian":[4.2E2,4E2,2E1,3.8E2,2E1,1.3E1,7E0,3.6E2,2E1,1.4E1,6E0,8E0,5E0,1E2,2.6E2,1.2E1,8E0,5E0,9E0],"tree_param":{"num_deleted":"0","num_feature":"22","num_nodes":"19","size_leaf_vector":"1"}},{"base_weights":[1.9756933E-4,-1.1820721E-2,2.2968027E-1,-2.4980618E-2,2.275003E-1,1.4590834E-1,1.6258208E-2,-3.941851E-2,2.244032E-1,8.144963E-3,2.6237616E-1,1.0404917E-2,2.3923158E-4,-2.7730213E-3,1.1147438E-2,8.627548E-3,1.4354712E-2,1.4880451E-2,7.676415E-3],"categories":[],"categories_nodes":[],"categories_segments":[],"categories_sizes":[],"default_left":[0,0,0,0,0,0,0,0,0,0,0,0,0,0,0,0,0,0,0],"id":91,"left_children":[1,3,5,7,9,11,-1,13,15,-1,17,-1,-1,-1,-1,-1,-1,-1,-1],"loss_changes":[1.1638286E0,1.2686086E0,1.20532036E-1,1.3806655E0,4.5725107E-3,1.1309865E-1,0E0,1.5317682E0,1.8725634E-2,0E0,3.2889843E-4,0E0,0E0,0E0,0E0,0E0,0E0,0E0,0E0],"parents":[2147483647,0,0,1,1,2,2,3,3,4,4,5,5,7,7,8,8,10,10],"right_children":[2,4,6,8,10,12,-1,14,16,-1,18,-1,-1,-1,-1,-1,-1,-1,-1],"split_conditions":[1E0,1E0,2.024E3,1E0,2.023E3,2.023E3,1.6258208E-2,1E0,2.024E3,8.144963E-3,2.025E3,1.0404917E-2,2.3923158E-4,-2.7730213E-3,1.1147438E-2,8.627548E-3,1.4354712E-2,1.4880451E-2,7.676415E-3],"split_indices":[10,8,0,11,0,0,0,7,0,0,0,0,0,0,0,0,0,0,0],"split_type":[0,0,0,0,0,0,0,0,0,0,0,0,0,0,0,0,0,0,0],"sum_hessian":[4.2E2,4E2,2E1,3.8E2,2E1,1.2E1,8E0,3.6E2,2E1,9E0,1.1E1,8E0,4E0,3.4E2,2E1,1.3E1,7E0,7E0,4E0],"tree_param":{"num_deleted":"0","num_feature":"22","num_nodes":"19","size_leaf_vector":"1"}},{"base_weights":[3.9901526E-4,1.2229578E-2,-2.2552739E-1,2.5247537E-2,-2.2453576E-1,-1.2937198E-2,-1.3920748E-1,1.4144035E-1,-6.104175E-3,-1.4094986E-2,-1.6755027E-1,-3.216035E-3,-8.563771E-3,-8.103461E-4,2.9631644E-2,-1.0055735E-2,1.2276525E-3,-5.9475503E-3,-1.2358042E-2],"categories":[],"categories_nodes":[],"categories_segments":[],"categories_sizes":[],"default_left":[0,0,0,0,0,0,0,0,0,0,0,0,0,0,0,0,0,0,0],"id":92,"left_children":[1,3,5,7,9,-1,11,13,15,-1,17,-1,-1,-1,-1,-1,-1,-1,-1],"loss_changes":[1.1280222E0,1.2416317E0,2.4193287E-2,1.3887868E0,2.1414876E-2,0E0,8.195147E-3,5.7710757E0,1.804461E0,0E0,2.089718E-2,0E0,0E0,0E0,0E0,0E0,0E0,0E0,0E0],"parents":[2147483647,0,0,1,1,2,2,3,3,4,4,6,6,7,7,8,8,10,10],"right_children":[2,4,6,8,10,-1,12,14,16,-1,18,-1,-1,-1,-1,-1,-1,-1,-1],"split_conditions":[1E0,1E0,2.024E3,1.9E0,2.023E3,-1.2937198E-2,2.025E3,1.7E0,2.5E0,-1.4094986E-2,2.025E3,-3.216035E-3,-8.563771E-3,-8.103461E-4,2.9631644E-2,-1.0055735E-2,1.2276525E-3,-5.9475503E-3,-1.2358042E-2],"split_indices":[19,6,0,1,0,0,0,1,1,0,0,0,0,0,0,0,0,0,0],"split_type":[0,0,0,0,0,0,0,0,0,0,0,0,0,0,0,0,0,0,0],"sum_hessian":[4.2E2,4E2,2E1,3.8E2,2E1,1.3E1,7E0,8E1,3E2,8E0,1.2E1,3E0,4E0,6E1,2E1,4E1,2.6E2,9E0,3E0],"tree_param":{"num_deleted":"0","num_feature":"22","num_nodes":"19","size_leaf_vector":"1"}},{"base_weights":[2.9088528E-4,2.2550878E-1,-1.1504293E-2,1.6828222E-2,6.5638633E-3,-1.6700938E-1,1.634707E-2,-5.124095E-2,-2.2223201E-1,5.644123E-1,-1.955859E-2,-4.5637116E-3,7.085954E-3,-1.2972169E-2,-7.7218483E-3,2.1611253E-2,4.1142147E-2,-9.56521E-3,2.7849904E-4],"categories":[],"categories_nodes":[],"categories_segments":[],"categories_sizes":[],"default_left":[0,0,0,0,0,0,0,0,0,0,0,0,0,0,0,0,0,0,0],"id":93,"left_children":[1,3,5,-1,-1,7,9,11,13,15,17,-1,-1,-1,-1,-1,-1,-1,-1],"loss_changes":[1.1209747E0,